booster[0]:
0:[0<1.5] yes=1,no=2,missing=1,gain=619.227661,cover=558.787109
	1:leaf=-0.15430975,cover=291.714844
	2:[25<1.5] yes=3,no=4,missing=3,gain=473.142395,cover=267.072266
		3:[24<1.5] yes=5,no=6,missing=5,gain=663.925354,cover=183.941406
			5:leaf=-0.153672859,cover=131.810547
			6:leaf=1.10158443,cover=52.1308594
		4:leaf=1.06653059,cover=83.1308594
booster[1]:
0:[5<0.5] yes=1,no=2,missing=1,gain=174.778534,cover=558.787109
	1:[0<0.5] yes=3,no=4,missing=3,gain=175.435333,cover=247.333984
		3:[24<0.5] yes=5,no=6,missing=5,gain=977.561218,cover=72.171875
			5:leaf=2.22547364,cover=21.3730469
			6:leaf=-0.151849478,cover=50.7988281
		4:[10<0.5] yes=7,no=8,missing=7,gain=84.1830597,cover=175.162109
			7:[24<0.5] yes=9,no=10,missing=9,gain=108.106529,cover=71.9296875
				9:leaf=-0.15004535,cover=31.3027344
				10:[0<1.5] yes=11,no=12,missing=11,gain=211.988281,cover=40.6269531
					11:[24<1.5] yes=13,no=14,missing=13,gain=333.044678,cover=21.6152344
						13:leaf=2.18039465,cover=12.1699219
						14:leaf=-0.140014961,cover=9.4453125
					12:leaf=-0.147101313,cover=19.0117188
			8:leaf=-0.153353199,cover=103.232422
	2:leaf=-0.154343158,cover=311.453125
booster[2]:
0:[24<0.5] yes=1,no=2,missing=1,gain=408.826294,cover=558.787109
	1:[0<0.5] yes=3,no=4,missing=3,gain=239.676941,cover=193.628906
		3:leaf=-0.151375905,cover=43.7148438
		4:[25<1.5] yes=7,no=8,missing=7,gain=96.9157104,cover=149.914063
			7:[10<0.5] yes=11,no=12,missing=11,gain=33.2039795,cover=104.988281
				11:[5<0.5] yes=17,no=18,missing=17,gain=19.3332214,cover=40.9296875
					17:[0<1.5] yes=25,no=26,missing=25,gain=22.1419678,cover=21.7363281
						25:leaf=1.48342824,cover=13.7441406
						26:leaf=0.696437895,cover=7.9921875
					18:[15<0.5] yes=27,no=28,missing=27,gain=61.6823807,cover=19.1933594
						27:leaf=-0.130134001,cover=5.26757813
						28:leaf=1.04140282,cover=13.9257813
				12:[0<1.5] yes=19,no=20,missing=19,gain=29.3799438,cover=64.0585938
					19:[5<0.5] yes=29,no=30,missing=29,gain=53.4463196,cover=20.1015625
						29:leaf=-0.141485602,cover=10.5957031
						30:leaf=0.802230954,cover=9.50585938
					20:leaf=0.782830834,cover=43.9570313
			8:[0<1.5] yes=13,no=14,missing=13,gain=127.68721,cover=44.9257813
				13:[10<0.5] yes=21,no=22,missing=21,gain=13.6866913,cover=18.0429688
					21:[5<0.5] yes=31,no=32,missing=31,gain=26.3090057,cover=8.29492188
						31:leaf=1.34873164,cover=7.08398438
						32:leaf=-0.0848056599,cover=1.2109375
					22:[5<0.5] yes=33,no=34,missing=33,gain=51.1547775,cover=9.74804688
						33:leaf=-0.129647285,cover=5.14648438
						34:leaf=1.15815902,cover=4.6015625
				14:leaf=-0.149285525,cover=26.8828125
	2:[25<0.5] yes=5,no=6,missing=5,gain=52.4843712,cover=365.158203
		5:[0<1.5] yes=9,no=10,missing=9,gain=86.675209,cover=121.457031
			9:leaf=-0.152458727,cover=64.0585938
			10:[24<1.5] yes=15,no=16,missing=15,gain=126.855789,cover=57.3984375
				15:[10<0.5] yes=23,no=24,missing=23,gain=14.9924469,cover=32.0898438
					23:[15<0.5] yes=35,no=36,missing=35,gain=12.2959251,cover=9.62695313
						35:leaf=-0.115805022,cover=2.96679688
						36:leaf=0.570321262,cover=6.66015625
					24:leaf=0.874652505,cover=22.4628906
				16:leaf=-0.148953244,cover=25.3085938
		6:leaf=-0.154205948,cover=243.701172
booster[3]:
0:[0<0.5] yes=1,no=2,missing=1,gain=2763.68018,cover=558.787109
	1:[5<0.5] yes=3,no=4,missing=3,gain=3174.9519,cover=159.177734
		3:leaf=-0.152722627,cover=72.171875
		4:[24<0.5] yes=5,no=6,missing=5,gain=1469.82178,cover=87.0058594
			5:leaf=4.59436035,cover=22.3417969
			6:[10<0.5] yes=7,no=8,missing=7,gain=76.8081055,cover=64.6640625
				7:[24<1.5] yes=9,no=10,missing=9,gain=1234.14783,cover=36.2070313
					9:leaf=4.43215084,cover=12.0488281
					10:[15<0.5] yes=13,no=14,missing=13,gain=822.12915,cover=24.1582031
						13:leaf=3.95225954,cover=4.66210938
						14:leaf=-0.147284165,cover=19.4960938
				8:[24<1.5] yes=11,no=12,missing=11,gain=1426.46875,cover=28.4570313
					11:leaf=-0.147415727,cover=19.859375
					12:leaf=4.29987812,cover=8.59765625
	2:leaf=-0.154452205,cover=399.609375
booster[4]:
0:[0<0.5] yes=1,no=2,missing=1,gain=102.0467,cover=558.787109
	1:[24<0.5] yes=3,no=4,missing=3,gain=53.5364304,cover=159.177734
		3:leaf=-0.151375905,cover=43.7148438
		4:[10<1.5] yes=5,no=6,missing=5,gain=53.6396408,cover=115.462891
			5:[10<0.5] yes=7,no=8,missing=7,gain=95.6370926,cover=90.4570313
				7:[24<1.5] yes=9,no=10,missing=9,gain=59.6190567,cover=67.2070313
					9:leaf=-0.149963111,cover=30.7578125
					10:[15<0.5] yes=13,no=14,missing=13,gain=67.5187378,cover=36.4492188
						13:leaf=-0.143498793,cover=12.6542969
						14:leaf=0.698353708,cover=23.7949219
				8:[24<1.5] yes=11,no=12,missing=11,gain=221.179291,cover=23.25
					11:[5<0.5] yes=15,no=16,missing=15,gain=176.088989,cover=12.4121094
						15:leaf=3.48997903,cover=2.6640625
						16:leaf=0.892313302,cover=9.74804688
					12:leaf=-0.1417588,cover=10.8378906
			6:leaf=-0.148884729,cover=25.0058594
	2:leaf=-0.154452205,cover=399.609375
booster[5]:
0:[0<0.5] yes=1,no=2,missing=1,gain=75.6512756,cover=558.787109
	1:[10<1.5] yes=3,no=4,missing=3,gain=65.5568924,cover=159.177734
		3:[15<1.5] yes=5,no=6,missing=5,gain=96.9208679,cover=127.814453
			5:leaf=-0.153265476,cover=97.4199219
			6:[24<1.5] yes=9,no=10,missing=9,gain=190.792267,cover=30.3945313
				9:leaf=-0.147006527,cover=18.7695313
				10:[5<1.5] yes=13,no=14,missing=13,gain=518.171143,cover=11.625
					13:leaf=3.80300236,cover=3.81445313
					14:leaf=-0.13726446,cover=7.81054688
		4:[24<1.5] yes=7,no=8,missing=7,gain=93.0651779,cover=31.3632813
			7:[5<1.5] yes=11,no=12,missing=11,gain=240.546051,cover=18.4667969
				11:[24<0.5] yes=15,no=16,missing=15,gain=426.303101,cover=8.59765625
					15:leaf=-0.126894623,cover=4.54101563
					16:leaf=3.85075331,cover=4.05664063
				12:leaf=-0.140592992,cover=9.86914063
			8:leaf=-0.143696427,cover=12.8964844
	2:leaf=-0.154452205,cover=399.609375
booster[6]:
0:[0<0.5] yes=1,no=2,missing=1,gain=703.973389,cover=558.787109
	1:[24<0.5] yes=3,no=4,missing=3,gain=370.035278,cover=159.177734
		3:leaf=-0.151375905,cover=43.7148438
		4:[5<0.5] yes=5,no=6,missing=5,gain=92.3498535,cover=115.462891
			5:leaf=1.17443538,cover=50.7988281
			6:[15<0.5] yes=7,no=8,missing=7,gain=19.2613525,cover=64.6640625
				7:[24<1.5] yes=9,no=10,missing=9,gain=82.8825607,cover=36.5097656
					9:[10<0.5] yes=13,no=14,missing=13,gain=38.019165,cover=23.25
						13:leaf=-0.119572952,cover=3.390625
						14:leaf=0.931235969,cover=19.859375
					10:leaf=-0.14398028,cover=13.2597656
				8:[24<1.5] yes=11,no=12,missing=11,gain=126.475937,cover=28.1542969
					11:leaf=-0.13880688,cover=8.65820313
					12:leaf=1.21395087,cover=19.4960938
	2:leaf=-0.154452205,cover=399.609375
booster[7]:
0:[0<1.5] yes=1,no=2,missing=1,gain=169.271423,cover=558.787109
	1:[0<0.5] yes=3,no=4,missing=3,gain=423.318207,cover=291.714844
		3:leaf=-0.153872043,cover=159.177734
		4:[10<0.5] yes=5,no=6,missing=5,gain=86.4918213,cover=132.537109
			5:[24<1.5] yes=7,no=8,missing=7,gain=54.7387695,cover=60.9101563
				7:[24<0.5] yes=11,no=12,missing=11,gain=208.191376,cover=42.3222656
					11:[5<0.5] yes=19,no=20,missing=19,gain=74.0143433,cover=24.0976563
						19:leaf=1.37780964,cover=20.828125
						20:leaf=-0.118572742,cover=3.26953125
					12:leaf=-0.146784514,cover=18.2246094
				8:[15<0.5] yes=13,no=14,missing=13,gain=83.4842224,cover=18.5878906
					13:leaf=1.53346801,cover=15.4394531
					14:leaf=-0.117514126,cover=3.1484375
			6:[5<0.5] yes=9,no=10,missing=9,gain=32.8226242,cover=71.6269531
				9:[24<1.5] yes=15,no=16,missing=15,gain=82.6740952,cover=44.3203125
					15:leaf=-0.149391964,cover=27.4277344
					16:[15<0.5] yes=21,no=22,missing=21,gain=46.3876343,cover=16.8925781
						21:leaf=-0.126894623,cover=4.54101563
						22:leaf=0.957753062,cover=12.3515625
				10:[24<0.5] yes=17,no=18,missing=17,gain=153.230469,cover=27.3066406
					17:leaf=1.24545586,cover=14.1074219
					18:leaf=-0.143933982,cover=13.1992188
	2:leaf=-0.154261112,cover=267.072266
booster[8]:
0:[0<1.5] yes=1,no=2,missing=1,gain=260.872437,cover=558.787109
	1:leaf=-0.15430975,cover=291.714844
	2:[25<1.5] yes=3,no=4,missing=3,gain=224.985519,cover=267.072266
		3:[24<1.5] yes=5,no=6,missing=5,gain=284.849884,cover=183.941406
			5:[24<0.5] yes=7,no=8,missing=7,gain=86.5635376,cover=131.810547
				7:leaf=0.904673576,cover=69.0839844
				8:[25<0.5] yes=9,no=10,missing=9,gain=170.861267,cover=62.7265625
					9:[5<0.5] yes=11,no=12,missing=11,gain=4.49638748,cover=32.0898438
						11:leaf=0.0897531807,cover=9.4453125
						12:leaf=-0.148290113,cover=22.6445313
					10:leaf=0.902629972,cover=30.6367188
			6:leaf=-0.151924416,cover=52.1308594
		4:leaf=-0.152998269,cover=83.1308594
booster[9]:
0:[25<0.5] yes=1,no=2,missing=1,gain=37.4496346,cover=558.787109
	1:[0<1.5] yes=3,no=4,missing=3,gain=61.1614952,cover=189.875
		3:leaf=-0.153287426,cover=98.8125
		4:[24<0.5] yes=5,no=6,missing=5,gain=68.1401978,cover=91.0625
			5:leaf=-0.150371879,cover=33.6640625
			6:[24<1.5] yes=7,no=8,missing=7,gain=142.810486,cover=57.3984375
				7:[15<0.5] yes=9,no=10,missing=9,gain=7.31547546,cover=32.0898438
					9:[5<0.5] yes=11,no=12,missing=11,gain=33.1534538,cover=10.65625
						11:leaf=0.894218504,cover=6.296875
						12:leaf=-0.125947535,cover=4.359375
					10:[5<0.5] yes=13,no=14,missing=13,gain=45.811142,cover=21.4335938
						13:leaf=-0.117514126,cover=3.1484375
						14:leaf=1.0821147,cover=18.2851563
				8:leaf=-0.148953244,cover=25.3085938
	2:leaf=-0.154420123,cover=368.912109
booster[10]:
0:[10<0.5] yes=1,no=2,missing=1,gain=163.143677,cover=558.787109
	1:[0<1.5] yes=3,no=4,missing=3,gain=175.273346,cover=250.845703
		3:[24<1.5] yes=5,no=6,missing=5,gain=251.616714,cover=157.300781
			5:[5<0.5] yes=7,no=8,missing=7,gain=76.35495,cover=102.263672
				7:[22<0.5] yes=9,no=10,missing=9,gain=3.60473633,cover=66.6015625
					9:[0<0.5] yes=13,no=14,missing=13,gain=0.604858398,cover=34.9355469
						13:leaf=0.796135306,cover=18.40625
						14:leaf=0.555676937,cover=16.5292969
					10:[20<1.5] yes=15,no=16,missing=15,gain=2.61404419,cover=31.6660156
						15:leaf=0.784932256,cover=21.1914063
						16:leaf=1.16588938,cover=10.4746094
				8:[0<0.5] yes=11,no=12,missing=11,gain=191.650772,cover=35.6621094
					11:leaf=-0.149174839,cover=26.3378906
					12:[24<0.5] yes=17,no=18,missing=17,gain=123.600357,cover=9.32421875
						17:leaf=-0.118572742,cover=3.26953125
						18:leaf=2.07840538,cover=6.0546875
			6:leaf=-0.152075574,cover=55.0371094
		4:leaf=-0.153200984,cover=93.5449219
	2:leaf=-0.154337525,cover=307.941406
booster[11]:
0:[0<0.5] yes=1,no=2,missing=1,gain=96.5407639,cover=558.787109
	1:[24<1.5] yes=3,no=4,missing=3,gain=141.909485,cover=159.177734
		3:[24<0.5] yes=7,no=8,missing=7,gain=293.651306,cover=98.9941406
			7:leaf=-0.151375905,cover=43.7148438
			8:[5<0.5] yes=11,no=12,missing=11,gain=34.4958496,cover=55.2792969
				11:[10<0.5] yes=15,no=16,missing=15,gain=111.980042,cover=23.3710938
					15:leaf=1.48171639,cover=18.7089844
					16:leaf=-0.127492249,cover=4.66210938
				12:[10<0.5] yes=17,no=18,missing=17,gain=134.190033,cover=31.9082031
					17:leaf=-0.142972618,cover=12.0488281
					18:leaf=1.1038202,cover=19.859375
		4:leaf=-0.152307987,cover=60.1835938
	2:[24<0.5] yes=5,no=6,missing=5,gain=20.7020721,cover=399.609375
		5:leaf=-0.153812706,cover=149.914063
		6:[24<1.5] yes=9,no=10,missing=9,gain=52.2891159,cover=249.695313
			9:[25<1.5] yes=13,no=14,missing=13,gain=49.3472519,cover=128.359375
				13:[25<0.5] yes=19,no=20,missing=19,gain=100.607986,cover=87.7929688
					19:[10<0.5] yes=21,no=22,missing=21,gain=5.11643553,cover=43.6542969
						21:leaf=0.0625215098,cover=14.8945313
						22:leaf=-0.149635762,cover=28.7597656
					20:[0<1.5] yes=23,no=24,missing=23,gain=109.047821,cover=44.1386719
						23:leaf=-0.144161627,cover=13.5019531
						24:leaf=0.864699364,cover=30.6367188
				14:leaf=-0.151113629,cover=40.5664063
			10:leaf=-0.153573036,cover=121.335938
booster[12]:
0:[0<1.5] yes=1,no=2,missing=1,gain=908.055969,cover=558.787109
	1:[0<0.5] yes=3,no=4,missing=3,gain=2269.15039,cover=291.714844
		3:leaf=-0.153872043,cover=159.177734
		4:[10<0.5] yes=5,no=6,missing=5,gain=3499.74048,cover=132.537109
			5:leaf=-0.1523377,cover=60.9101563
			6:[5<0.5] yes=7,no=8,missing=7,gain=176.766113,cover=71.6269531
				7:[24<1.5] yes=9,no=10,missing=9,gain=1390.08398,cover=44.3203125
					9:leaf=4.63115072,cover=27.4277344
					10:[15<0.5] yes=13,no=14,missing=13,gain=710.212646,cover=16.8925781
						13:leaf=3.93373299,cover=4.54101563
						14:leaf=-0.143241674,cover=12.3515625
				8:[24<0.5] yes=11,no=12,missing=11,gain=1675.70422,cover=27.3066406
					11:leaf=-0.144589528,cover=14.1074219
					12:leaf=4.46195364,cover=13.1992188
	2:leaf=-0.154261112,cover=267.072266
booster[13]:
0:[0<1.5] yes=1,no=2,missing=1,gain=15.2339706,cover=558.787109
	1:[0<0.5] yes=3,no=4,missing=3,gain=38.4600143,cover=291.714844
		3:leaf=-0.153872043,cover=159.177734
		4:[15<1.5] yes=5,no=6,missing=5,gain=18.9235458,cover=132.537109
			5:[15<0.5] yes=7,no=8,missing=7,gain=39.8743668,cover=104.201172
				7:[24<0.5] yes=9,no=10,missing=9,gain=40.0606422,cover=78.0449219
					9:[5<0.5] yes=13,no=14,missing=13,gain=42.1975441,cover=29.3046875
						13:leaf=-0.142861471,cover=11.9277344
						14:leaf=0.571878016,cover=17.3769531
					10:leaf=-0.151725769,cover=48.7402344
				8:[24<1.5] yes=11,no=12,missing=11,gain=187.146378,cover=26.15625
					11:leaf=-0.146413013,cover=17.3769531
					12:[10<1.5] yes=15,no=16,missing=15,gain=89.1087952,cover=8.77929688
						15:leaf=0.792075396,cover=7.08398438
						16:leaf=3.01913071,cover=1.6953125
			6:leaf=-0.149560586,cover=28.3359375
	2:leaf=-0.154261112,cover=267.072266
booster[14]:
0:[0<1.5] yes=1,no=2,missing=1,gain=14.917717,cover=558.787109
	1:[0<0.5] yes=3,no=4,missing=3,gain=37.6698685,cover=291.714844
		3:leaf=-0.153872043,cover=159.177734
		4:[5<1.5] yes=5,no=6,missing=5,gain=50.8360367,cover=132.537109
			5:[15<1.5] yes=7,no=8,missing=7,gain=56.1942596,cover=109.105469
				7:leaf=-0.152945131,cover=80.7695313
				8:[24<1.5] yes=11,no=12,missing=11,gain=215.2146,cover=28.3359375
					11:leaf=-0.14799206,cover=21.6152344
					12:[10<1.5] yes=15,no=16,missing=15,gain=294.448242,cover=6.72070313
						15:leaf=3.5518539,cover=2.84570313
						16:leaf=-0.123076931,cover=3.875
			6:[24<0.5] yes=9,no=10,missing=9,gain=147.046906,cover=23.4316406
				9:[10<1.5] yes=13,no=14,missing=13,gain=370.212891,cover=8.90039063
					13:leaf=3.58995605,cover=2.96679688
					14:leaf=-0.132507056,cover=5.93359375
				10:leaf=-0.144869223,cover=14.53125
	2:leaf=-0.154261112,cover=267.072266
booster[15]:
0:[15<0.5] yes=1,no=2,missing=1,gain=20.3781815,cover=558.787109
	1:[0<1.5] yes=3,no=4,missing=3,gain=20.2034874,cover=265.619141
		3:[24<1.5] yes=5,no=6,missing=5,gain=33.2485085,cover=174.496094
			5:[5<0.5] yes=7,no=8,missing=7,gain=6.31234932,cover=111.527344
				7:[10<0.5] yes=9,no=10,missing=9,gain=68.6339722,cover=44.4414063
					9:leaf=-0.148469523,cover=23.3105469
					10:[0<0.5] yes=13,no=14,missing=13,gain=110.263985,cover=21.1308594
						13:leaf=1.19227803,cover=11.140625
						14:leaf=-0.140749961,cover=9.99023438
				8:[10<0.5] yes=11,no=12,missing=11,gain=86.082077,cover=67.0859375
					11:[0<0.5] yes=15,no=16,missing=15,gain=106.835167,cover=18.4667969
						15:leaf=-0.139572501,cover=9.14257813
						16:leaf=1.25493753,cover=9.32421875
					12:leaf=-0.151718169,cover=48.6191406
			6:leaf=-0.152418181,cover=62.96875
		4:leaf=-0.153157935,cover=91.1230469
	2:leaf=-0.154312357,cover=293.167969
booster[16]:
0:[24<1.5] yes=1,no=2,missing=1,gain=461.196045,cover=558.787109
	1:leaf=-0.154429391,cover=377.267578
	2:[0<1.5] yes=3,no=4,missing=3,gain=525.261475,cover=181.519531
		3:[5<0.5] yes=5,no=6,missing=5,gain=34.9396973,cover=102.263672
			5:[15<0.5] yes=7,no=8,missing=7,gain=42.0701294,cover=53.765625
				7:[0<0.5] yes=11,no=12,missing=11,gain=48.4084473,cover=33.9667969
					11:leaf=1.50519681,cover=23.1289063
					12:[10<0.5] yes=17,no=18,missing=17,gain=51.9981537,cover=10.8378906
						17:leaf=1.14089942,cover=6.296875
						18:leaf=-0.126894623,cover=4.54101563
				8:[10<0.5] yes=13,no=14,missing=13,gain=82.4192276,cover=19.7988281
					13:leaf=-0.136508673,cover=7.44726563
					14:leaf=1.09256876,cover=12.3515625
			6:[10<0.5] yes=9,no=10,missing=9,gain=161.715393,cover=48.4980469
				9:[0<0.5] yes=15,no=16,missing=15,gain=22.9127808,cover=33.3007813
					15:[15<0.5] yes=19,no=20,missing=19,gain=58.3941345,cover=24.1582031
						19:leaf=-0.127492249,cover=4.66210938
						20:leaf=1.02367067,cover=19.4960938
					16:leaf=1.4576546,cover=9.14257813
				10:leaf=-0.145279154,cover=15.1972656
		4:leaf=-0.152909398,cover=79.2558594
booster[17]:
0:[0<1.5] yes=1,no=2,missing=1,gain=812.270264,cover=558.787109
	1:leaf=-0.15430975,cover=291.714844
	2:[5<0.5] yes=3,no=4,missing=3,gain=2473.50513,cover=267.072266
		3:[15<0.5] yes=5,no=6,missing=5,gain=4702.43018,cover=88.3984375
			5:leaf=-0.151691288,cover=48.1953125
			6:leaf=4.21023941,cover=40.203125
		4:[10<0.5] yes=7,no=8,missing=7,gain=21.8737392,cover=178.673828
			7:[24<0.5] yes=9,no=10,missing=9,gain=19.0435963,cover=64.0585938
				9:leaf=-0.148453608,cover=23.25
				10:[24<1.5] yes=11,no=12,missing=11,gain=42.2212715,cover=40.8085938
					11:[15<0.5] yes=13,no=14,missing=13,gain=60.9462013,cover=22.4023438
						13:leaf=-0.139480829,cover=9.08203125
						14:leaf=0.840589225,cover=13.3203125
					12:leaf=-0.146859914,cover=18.40625
			8:leaf=-0.153499454,cover=114.615234
booster[18]:
0:[0<1.5] yes=1,no=2,missing=1,gain=765.213989,cover=558.787109
	1:leaf=-0.15430975,cover=291.714844
	2:[5<1.5] yes=3,no=4,missing=3,gain=644.167236,cover=267.072266
		3:[5<0.5] yes=5,no=6,missing=5,gain=1858.82263,cover=175.646484
			5:[24<0.5] yes=9,no=10,missing=9,gain=2.14134741,cover=88.3984375
				9:leaf=-0.150176436,cover=32.2109375
				10:[24<1.5] yes=15,no=16,missing=15,gain=5.72703409,cover=56.1875
					15:[25<1.5] yes=21,no=22,missing=21,gain=7.11259317,cover=29.1230469
						21:leaf=0.152615398,cover=18.0429688
						22:leaf=-0.14202103,cover=11.0800781
					16:leaf=-0.149321467,cover=27.0644531
			6:[15<1.5] yes=11,no=12,missing=11,gain=1596.49365,cover=87.2480469
				11:[15<0.5] yes=17,no=18,missing=17,gain=2597.25928,cover=66.359375
					17:leaf=3.86168098,cover=20.1015625
					18:leaf=-0.151562244,cover=46.2578125
				12:leaf=4.08730268,cover=20.8886719
		4:[24<0.5] yes=7,no=8,missing=7,gain=1.60047531,cover=91.4257813
			7:leaf=-0.150308579,cover=33.1796875
			8:[24<1.5] yes=13,no=14,missing=13,gain=3.78639007,cover=58.2460938
				13:[10<0.5] yes=19,no=20,missing=19,gain=4.70704222,cover=32.2714844
					19:leaf=-0.142574266,cover=11.625
					20:[10<1.5] yes=23,no=24,missing=23,gain=13.9684162,cover=20.6464844
						23:leaf=0.331333578,cover=9.80859375
						24:leaf=-0.1417588,cover=10.8378906
				14:leaf=-0.149098545,cover=25.9746094
booster[19]:
0:[5<1.5] yes=1,no=2,missing=1,gain=1650.67126,cover=558.787109
	1:[10<1.5] yes=3,no=4,missing=3,gain=7.9451828,cover=399.730469
		3:leaf=-0.154322132,cover=298.738281
		4:[0<1.5] yes=7,no=8,missing=7,gain=8.99047756,cover=100.992188
			7:leaf=-0.151583105,cover=46.5605469
			8:[24<0.5] yes=11,no=12,missing=11,gain=11.276392,cover=54.4316406
				11:leaf=-0.147500932,cover=20.1015625
				12:[24<1.5] yes=13,no=14,missing=13,gain=28.0898857,cover=34.3300781
					13:[25<0.5] yes=15,no=16,missing=15,gain=37.52668,cover=17.6796875
						15:leaf=-0.135967642,cover=7.20507813
						16:leaf=0.721429765,cover=10.4746094
					14:leaf=-0.146066174,cover=16.6503906
	2:[0<1.5] yes=5,no=6,missing=5,gain=1765.70569,cover=159.056641
		5:leaf=-0.152582601,cover=67.6308594
		6:[15<1.5] yes=9,no=10,missing=9,gain=4332.37012,cover=91.4257813
			9:leaf=3.95382833,cover=44.3808594
			10:leaf=-0.151615933,cover=47.0449219
booster[20]:
0:[24<1.5] yes=1,no=2,missing=1,gain=55.1590691,cover=558.787109
	1:leaf=-0.154429391,cover=377.267578
	2:[0<1.5] yes=3,no=4,missing=3,gain=104.526672,cover=181.519531
		3:leaf=-0.153339267,cover=102.263672
		4:[15<0.5] yes=5,no=6,missing=5,gain=372.938263,cover=79.2558594
			5:[5<0.5] yes=7,no=8,missing=7,gain=474.571442,cover=25.7929688
				7:leaf=2.37963653,cover=13.5019531
				8:leaf=-0.143188834,cover=12.2910156
			6:leaf=-0.151995689,cover=53.4628906
booster[21]:
0:[24<1.5] yes=1,no=2,missing=1,gain=54.2579842,cover=558.787109
	1:leaf=-0.154429391,cover=377.267578
	2:[0<1.5] yes=3,no=4,missing=3,gain=102.823013,cover=181.519531
		3:leaf=-0.153339267,cover=102.263672
		4:[5<0.5] yes=5,no=6,missing=5,gain=93.3588333,cover=79.2558594
			5:leaf=-0.149321467,cover=27.0644531
			6:[5<1.5] yes=7,no=8,missing=7,gain=264.677917,cover=52.1914063
				7:[15<1.5] yes=9,no=10,missing=9,gain=161.037079,cover=26.2167969
					9:[15<0.5] yes=11,no=12,missing=11,gain=265.606995,cover=19.9804688
						11:leaf=-0.131906286,cover=5.75195313
						12:leaf=2.2390151,cover=14.2285156
					10:leaf=-0.133441299,cover=6.23632813
				8:leaf=-0.149098545,cover=25.9746094
booster[22]:
0:[15<1.5] yes=1,no=2,missing=1,gain=65.6783981,cover=558.787109
	1:leaf=-0.154464751,cover=413.050781
	2:[24<1.5] yes=3,no=4,missing=3,gain=201.281311,cover=145.736328
		3:leaf=-0.153330415,cover=101.658203
		4:[5<1.5] yes=5,no=6,missing=5,gain=288.701172,cover=44.078125
			5:leaf=-0.148239419,cover=22.4628906
			6:[0<1] yes=7,no=8,missing=7,gain=305.688446,cover=21.6152344
				7:leaf=-0.13726446,cover=7.81054688
				8:leaf=2.16569924,cover=13.8046875
booster[23]:
0:[25<1.5] yes=1,no=2,missing=1,gain=26.7026062,cover=558.787109
	1:leaf=-0.154432297,cover=379.992188
	2:[5<0.5] yes=3,no=4,missing=3,gain=46.9123878,cover=178.794922
		3:[0<1.5] yes=5,no=6,missing=5,gain=149.960709,cover=81.1933594
			5:leaf=-0.151921093,cover=52.0703125
			6:[15<0.5] yes=7,no=8,missing=7,gain=205.278336,cover=29.1230469
				7:[24<1.5] yes=9,no=10,missing=9,gain=169.930878,cover=15.1367188
					9:leaf=2.02037549,cover=10.65625
					10:leaf=-0.126585901,cover=4.48046875
				8:leaf=-0.144506723,cover=13.9863281
		4:leaf=-0.153268367,cover=97.6015625
booster[24]:
0:[25<1.5] yes=1,no=2,missing=1,gain=19.0443115,cover=558.787109
	1:leaf=-0.154432297,cover=379.992188
	2:[0<1.5] yes=3,no=4,missing=3,gain=32.0826263,cover=178.794922
		3:leaf=-0.153236896,cover=95.6640625
		4:[5<0.5] yes=5,no=6,missing=5,gain=31.9283123,cover=83.1308594
			5:leaf=-0.149698511,cover=29.1230469
			6:[5<1.5] yes=7,no=8,missing=7,gain=89.4016418,cover=54.0078125
				7:[24<1.5] yes=9,no=10,missing=9,gain=82.3306732,cover=27.0039063
					9:[15<0.5] yes=11,no=12,missing=11,gain=85.7874603,cover=18.2851563
						11:leaf=-0.127781585,cover=4.72265625
						12:leaf=1.31845498,cover=13.5625
					10:leaf=-0.138906762,cover=8.71875
				8:leaf=-0.149309531,cover=27.0039063
booster[25]:
0:[15<1.5] yes=1,no=2,missing=1,gain=21.9825516,cover=558.787109
	1:leaf=-0.154464751,cover=413.050781
	2:[25<1.5] yes=3,no=4,missing=3,gain=66.3046951,cover=145.736328
		3:leaf=-0.153320581,cover=100.992188
		4:[5<1.5] yes=5,no=6,missing=5,gain=145.377289,cover=44.7441406
			5:leaf=-0.149403542,cover=27.4882813
			6:[24<1.5] yes=7,no=8,missing=7,gain=180.98616,cover=17.2558594
				7:[0<1] yes=9,no=10,missing=9,gain=75.0028992,cover=9.4453125
					9:leaf=-0.0946889296,cover=1.57421875
					10:leaf=2.09458399,cover=7.87109375
				8:leaf=-0.13726446,cover=7.81054688
booster[26]:
0:[5<0.5] yes=1,no=2,missing=1,gain=403.641052,cover=558.787109
	1:[10<0.5] yes=3,no=4,missing=3,gain=191.663422,cover=247.333984
		3:[0<1.5] yes=7,no=8,missing=7,gain=67.6326294,cover=117.824219
			7:[15<0.5] yes=13,no=14,missing=13,gain=22.7174072,cover=88.3378906
				13:[24<1.5] yes=21,no=22,missing=21,gain=44.1415405,cover=37.5996094
					21:[23<0.5] yes=33,no=34,missing=33,gain=2.77432251,cover=23.3105469
						33:leaf=0.845201015,cover=12.6542969
						34:leaf=0.501876712,cover=10.65625
					22:leaf=1.44466031,cover=14.2890625
				14:[24<1.5] yes=23,no=24,missing=23,gain=65.7732544,cover=50.7382813
					23:leaf=0.810477614,cover=43.2910156
					24:leaf=-0.136508673,cover=7.44726563
			8:[15<0.5] yes=15,no=16,missing=15,gain=55.0925903,cover=29.4863281
				15:[25<1.5] yes=25,no=26,missing=25,gain=48.8458176,cover=15.8027344
					25:[24<1.5] yes=35,no=36,missing=35,gain=54.7687225,cover=11.0195313
						35:leaf=1.34350622,cover=8.11328125
						36:leaf=-0.115200005,cover=2.90625
					26:leaf=-0.128064841,cover=4.78320313
				16:leaf=-0.144293711,cover=13.6835938
		4:[15<0.5] yes=9,no=10,missing=9,gain=116.186462,cover=129.509766
			9:[0<0.5] yes=17,no=18,missing=17,gain=43.1836548,cover=73.2011719
				17:[24<1.5] yes=27,no=28,missing=27,gain=159.786026,cover=26.2773438
					27:leaf=-0.142084956,cover=11.140625
					28:leaf=1.32345688,cover=15.1367188
				18:[24<0.5] yes=29,no=30,missing=29,gain=116.48983,cover=46.9238281
					29:[0<1.5] yes=37,no=38,missing=37,gain=76.7209778,cover=18.7089844
						37:leaf=-0.13105312,cover=5.50976563
						38:leaf=1.16599727,cover=13.1992188
					30:leaf=-0.149538711,cover=28.2148438
			10:leaf=-0.152136862,cover=56.3085938
	2:[10<0.5] yes=5,no=6,missing=5,gain=20.3263931,cover=311.453125
		5:[15<0.5] yes=11,no=12,missing=11,gain=57.8532944,cover=133.021484
			11:[0<0.5] yes=19,no=20,missing=19,gain=34.4104195,cover=50.3144531
				19:leaf=-0.144379959,cover=13.8046875
				20:[24<0.5] yes=31,no=32,missing=31,gain=34.311142,cover=36.5097656
					31:leaf=-0.13750273,cover=7.93164063
					32:[21<0.5] yes=39,no=40,missing=39,gain=7.08553314,cover=28.578125
						39:leaf=0.34413594,cover=13.1386719
						40:leaf=0.694024026,cover=15.4394531
			12:leaf=-0.152988955,cover=82.7070313
		6:leaf=-0.15397577,cover=178.431641
booster[27]:
0:[15<1.5] yes=1,no=2,missing=1,gain=42.7373886,cover=558.787109
	1:[15<0.5] yes=3,no=4,missing=3,gain=71.9020844,cover=413.050781
		3:[5<0.5] yes=5,no=6,missing=5,gain=24.5369759,cover=265.619141
			5:leaf=-0.15362528,cover=126.603516
			6:[5<1.5] yes=9,no=10,missing=9,gain=55.1071815,cover=139.015625
				9:[10<0.5] yes=15,no=16,missing=15,gain=58.1649284,cover=66.9648438
					15:leaf=-0.148624286,cover=23.9160156
					16:[10<1.5] yes=23,no=24,missing=23,gain=95.4369583,cover=43.0488281
						23:leaf=0.763262808,cover=26.9433594
						24:leaf=-0.145786718,cover=16.1054688
				10:leaf=-0.15271911,cover=72.0507813
		4:[5<0.5] yes=7,no=8,missing=7,gain=28.6812744,cover=147.431641
			7:[10<0.5] yes=11,no=12,missing=11,gain=28.2620678,cover=61.515625
				11:leaf=-0.150116161,cover=31.7871094
				12:[10<1.5] yes=17,no=18,missing=17,gain=34.174263,cover=29.7285156
					17:[24<0.5] yes=25,no=26,missing=25,gain=32.2264137,cover=18.0429688
						25:leaf=-0.129141018,cover=5.02539063
						26:leaf=0.73367703,cover=13.0175781
					18:leaf=-0.142632797,cover=11.6855469
			8:[5<1.5] yes=13,no=14,missing=13,gain=53.9901123,cover=85.9160156
				13:[24<0.5] yes=19,no=20,missing=19,gain=57.0167084,cover=58.4277344
					19:[25<1.5] yes=27,no=28,missing=27,gain=88.3924103,cover=19.7988281
						27:leaf=1.24844158,cover=14.2890625
						28:leaf=-0.13105312,cover=5.50976563
					20:[0<1] yes=29,no=30,missing=29,gain=108.341209,cover=38.6289063
						29:leaf=1.06666672,cover=9.6875
						30:leaf=-0.0494716279,cover=28.9414063
				14:[10<0.5] yes=21,no=22,missing=21,gain=3.50562716,cover=27.4882813
					21:leaf=-0.143548861,cover=12.7148438
					22:[10<1.5] yes=31,no=32,missing=31,gain=6.30925417,cover=14.7734375
						31:leaf=0.234610304,cover=7.87109375
						32:leaf=-0.135244697,cover=6.90234375
	2:leaf=-0.1537835,cover=145.736328
booster[28]:
0:[5<1.5] yes=1,no=2,missing=1,gain=161.047089,cover=558.787109
	1:[15<1.5] yes=3,no=4,missing=3,gain=11.695282,cover=399.730469
		3:leaf=-0.154346406,cover=313.511719
		4:[10<1.5] yes=7,no=8,missing=7,gain=39.2992249,cover=86.21875
			7:leaf=-0.152415887,cover=62.9082031
			8:[24<0.5] yes=13,no=14,missing=13,gain=26.930933,cover=23.3105469
				13:leaf=-0.137734637,cover=8.05273438
				14:[0<1.5] yes=21,no=22,missing=21,gain=5.32951355,cover=15.2578125
					21:[24<1.5] yes=31,no=32,missing=31,gain=31.3301735,cover=6.296875
						31:leaf=-0.109589048,cover=2.421875
						32:leaf=1.16923082,cover=3.875
					22:[24<1.5] yes=33,no=34,missing=33,gain=15.1772671,cover=8.9609375
						33:leaf=0.610012889,cover=5.0859375
						34:leaf=-0.123076931,cover=3.875
	2:[15<1.5] yes=5,no=6,missing=5,gain=66.8619308,cover=159.056641
		5:[10<1.5] yes=9,no=10,missing=9,gain=109.466011,cover=99.5390625
			9:leaf=-0.152495801,cover=65.0878906
			10:[0<1.5] yes=15,no=16,missing=15,gain=103.262184,cover=34.4511719
				15:[24<1.5] yes=23,no=24,missing=23,gain=52.6863556,cover=21.0097656
					23:leaf=1.10644078,cover=17.4375
					24:leaf=-0.120973945,cover=3.57226563
				16:leaf=-0.144116864,cover=13.4414063
		6:[24<0.5] yes=11,no=12,missing=11,gain=43.755249,cover=59.5175781
			11:[25<1.5] yes=17,no=18,missing=17,gain=58.8106232,cover=21.0703125
				17:[0<1] yes=25,no=26,missing=25,gain=28.4174194,cover=16.5898438
					25:leaf=-0.0946889296,cover=1.57421875
					26:leaf=1.1847806,cover=15.015625
				18:leaf=-0.126585901,cover=4.48046875
			12:[0<1] yes=19,no=20,missing=19,gain=96.8716431,cover=38.4472656
				19:[24<1.5] yes=27,no=28,missing=27,gain=52.0265045,cover=10.4746094
					27:leaf=-0.112579964,cover=2.6640625
					28:leaf=1.36093998,cover=7.81054688
				20:[10<1.5] yes=29,no=30,missing=29,gain=7.71125269,cover=27.9726563
					29:leaf=-0.146357134,cover=17.2558594
					30:[24<1.5] yes=35,no=36,missing=35,gain=8.24255562,cover=10.7167969
						35:leaf=0.3684268,cover=6.17578125
						36:leaf=-0.126894623,cover=4.54101563
booster[29]:
0:[25<0.5] yes=1,no=2,missing=1,gain=2.16189575,cover=558.787109
	1:[5<0.5] yes=3,no=4,missing=3,gain=4.55040359,cover=189.875
		3:[0<1.5] yes=5,no=6,missing=5,gain=14.5349236,cover=81.7382813
			5:leaf=-0.151947483,cover=52.5546875
			6:[24<0.5] yes=7,no=8,missing=7,gain=13.7385521,cover=29.1835938
				7:leaf=-0.142272949,cover=11.3222656
				8:[24<1.5] yes=9,no=10,missing=9,gain=29.7972794,cover=17.8613281
					9:[15<0.5] yes=11,no=12,missing=11,gain=28.8418617,cover=9.4453125
						11:leaf=0.935331941,cover=6.296875
						12:leaf=-0.117514126,cover=3.1484375
					10:leaf=-0.13839452,cover=8.41601563
		4:leaf=-0.153419971,cover=108.136719
	2:leaf=-0.154420123,cover=368.912109
booster[30]:
0:[25<0.5] yes=1,no=2,missing=1,gain=3.38480377,cover=558.787109
	1:[0<1.5] yes=3,no=4,missing=3,gain=5.6816349,cover=189.875
		3:leaf=-0.153287426,cover=98.8125
		4:[24<0.5] yes=5,no=6,missing=5,gain=6.36163521,cover=91.0625
			5:leaf=-0.150371879,cover=33.6640625
			6:[24<1.5] yes=7,no=8,missing=7,gain=13.5911837,cover=57.3984375
				7:[5<1.5] yes=9,no=10,missing=9,gain=16.9211254,cover=32.0898438
					9:[5<0.5] yes=11,no=12,missing=11,gain=38.1645927,cover=20.5253906
						11:leaf=-0.140014961,cover=9.4453125
						12:leaf=0.652675807,cover=11.0800781
					10:leaf=-0.142515153,cover=11.5644531
				8:leaf=-0.148953244,cover=25.3085938
	2:leaf=-0.154420123,cover=368.912109
booster[31]:
0:[15<1.5] yes=1,no=2,missing=1,gain=7.5864563,cover=558.787109
	1:leaf=-0.154464751,cover=413.050781
	2:[25<0.5] yes=3,no=4,missing=3,gain=19.4535332,cover=145.736328
		3:[5<1.5] yes=5,no=6,missing=5,gain=34.2628708,cover=50.4355469
			5:leaf=-0.149380341,cover=27.3671875
			6:[24<0.5] yes=7,no=8,missing=7,gain=39.9263954,cover=23.0683594
				7:leaf=-0.1396631,cover=9.203125
				8:[24<1.5] yes=9,no=10,missing=9,gain=80.9139862,cover=13.8652344
					9:leaf=1.25868666,cover=7.38671875
					10:leaf=-0.134134248,cover=6.47851563
		4:leaf=-0.153230846,cover=95.3007813
booster[32]:
0:[0<1.5] yes=1,no=2,missing=1,gain=339.083252,cover=487.907166
	1:leaf=-0.152370363,cover=169.708038
	2:[25<1.5] yes=3,no=4,missing=3,gain=85.1183472,cover=318.199127
		3:[24<1.5] yes=5,no=6,missing=5,gain=237.854584,cover=172.63356
			5:leaf=-0.151512936,cover=79.877121
			6:leaf=0.551474392,cover=92.7564316
		4:leaf=0.540446877,cover=145.565567
booster[33]:
0:[5<0.5] yes=1,no=2,missing=1,gain=66.1186447,cover=499.041718
	1:[24<1.5] yes=3,no=4,missing=3,gain=35.7382965,cover=325.963226
		3:[0<1.5] yes=5,no=6,missing=5,gain=33.9085426,cover=274.355927
			5:[25<1.5] yes=7,no=8,missing=7,gain=0.723007202,cover=238.479767
				7:[10<1.5] yes=9,no=10,missing=9,gain=0.816558838,cover=156.200134
					9:[0<0.5] yes=13,no=14,missing=13,gain=0.311958313,cover=144.438385
						13:leaf=0.166533411,cover=85.7574005
						14:leaf=0.128536493,cover=58.6809921
					10:[20<0.5] yes=15,no=16,missing=15,gain=1.32553315,cover=11.761735
						15:leaf=0.140150413,cover=6.81886625
						16:leaf=-0.0506308042,cover=4.94286919
				8:[20<0.5] yes=11,no=12,missing=11,gain=0.10943222,cover=82.2796326
					11:[22<0.5] yes=17,no=18,missing=17,gain=0.63257122,cover=24.3325806
						17:leaf=0.0907504857,cover=12.550437
						18:leaf=0.199933901,cover=11.7821436
					12:leaf=0.19939965,cover=57.947052
			6:leaf=-0.149182603,cover=35.8761559
		4:leaf=-0.150429055,cover=51.6073151
	2:leaf=-0.152296171,cover=173.078476
booster[34]:
0:[24<0.5] yes=1,no=2,missing=1,gain=160.857178,cover=493.80542
	1:[0<0.5] yes=3,no=4,missing=3,gain=52.6279907,cover=254.064804
		3:leaf=-0.145694643,cover=20.3991604
		4:[25<1.5] yes=7,no=8,missing=7,gain=14.2301331,cover=233.665649
			7:[0<1.5] yes=11,no=12,missing=11,gain=5.5168457,cover=182.008499
				11:[15<1.5] yes=17,no=18,missing=17,gain=0.600357056,cover=69.9189758
					17:[21<0.5] yes=23,no=24,missing=23,gain=0.0467147827,cover=51.2010956
						23:leaf=0.370400727,cover=30.0597439
						24:leaf=0.27572608,cover=21.1413536
					18:[21<0.5] yes=25,no=26,missing=25,gain=0.455854416,cover=18.7178822
						25:leaf=0.147156343,cover=8.06288624
						26:leaf=0.282521814,cover=10.6549959
				12:[18<0.5] yes=19,no=20,missing=19,gain=1.38806152,cover=112.089516
					19:[15<0.5] yes=27,no=28,missing=27,gain=1.04445648,cover=55.5290794
						27:leaf=0.455826312,cover=20.2289486
						28:leaf=0.323368341,cover=35.3001289
					20:leaf=0.483579069,cover=56.5604401
			8:[0<1.5] yes=13,no=14,missing=13,gain=29.504055,cover=51.6571503
				13:leaf=0.347210348,cover=36.728817
				14:leaf=-0.143486127,cover=14.9283295
	2:[25<0.5] yes=5,no=6,missing=5,gain=53.539032,cover=239.740616
		5:[0<1.5] yes=9,no=10,missing=9,gain=55.8583031,cover=100.870331
			9:leaf=-0.149387628,cover=38.2467575
			10:[24<1.5] yes=15,no=16,missing=15,gain=40.6082993,cover=62.6235733
				15:[15<0.5] yes=21,no=22,missing=21,gain=2.18672943,cover=48.9483643
					21:[5<0.5] yes=29,no=30,missing=29,gain=9.95345974,cover=15.130332
						29:leaf=0.422539741,cover=11.617631
						30:leaf=-0.120120786,cover=3.51270103
					22:[5<0.5] yes=31,no=32,missing=31,gain=11.0003357,cover=33.8180313
						31:leaf=-0.107329465,cover=2.32130265
						32:leaf=0.528028488,cover=31.4967289
				16:leaf=-0.142487198,cover=13.67521
		6:leaf=-0.152072817,cover=138.870285
booster[35]:
0:[0<0.5] yes=1,no=2,missing=1,gain=118.111954,cover=598.502625
	1:[5<0.5] yes=3,no=4,missing=3,gain=50.3883972,cover=369.888641
		3:leaf=-0.150602013,cover=51.9304428
		4:[24<0.5] yes=5,no=6,missing=5,gain=1.03247833,cover=317.958191
			5:leaf=0.189592734,cover=124.530113
			6:[15<0.5] yes=7,no=8,missing=7,gain=0.698196411,cover=193.428085
				7:[24<1.5] yes=9,no=10,missing=9,gain=7.71276093,cover=126.038956
					9:[10<0.5] yes=13,no=14,missing=13,gain=11.4304218,cover=35.8950539
						13:leaf=0.188313127,cover=20.4618874
						14:leaf=-0.144475445,cover=15.4331684
					10:leaf=0.210876629,cover=90.143898
				8:[24<1.5] yes=11,no=12,missing=11,gain=15.2334499,cover=67.3891373
					11:leaf=0.194904894,cover=52.8193779
					12:leaf=-0.143795863,cover=14.5697594
	2:leaf=-0.152545691,cover=228.613998
booster[36]:
0:[0<0.5] yes=1,no=2,missing=1,gain=76.3957596,cover=379.103455
	1:[5<1.5] yes=3,no=4,missing=3,gain=44.6203384,cover=150.489456
		3:[5<0.5] yes=5,no=6,missing=5,gain=23.0145302,cover=115.461143
			5:[15<0.5] yes=9,no=10,missing=9,gain=18.5305195,cover=76.5300369
				9:[24<1.5] yes=13,no=14,missing=13,gain=9.31796646,cover=53.9473343
					13:[10<0.5] yes=19,no=20,missing=19,gain=9.07595634,cover=36.2902336
						19:leaf=-0.138038874,cover=8.88834
						20:leaf=0.198270276,cover=27.4018955
					14:leaf=-0.145402223,cover=17.6570969
				10:[24<1.5] yes=15,no=16,missing=15,gain=143.719543,cover=22.5827026
					15:leaf=-0.144611076,cover=16.1830692
					16:[15<1.5] yes=21,no=22,missing=21,gain=61.0181122,cover=6.39963245
						21:leaf=1.90953553,cover=4.72983837
						22:leaf=-0.0964003205,cover=1.6697942
			6:leaf=-0.154608145,cover=38.9311066
		4:[15<1.5] yes=7,no=8,missing=7,gain=89.7784424,cover=35.0283165
			7:[10<1.5] yes=11,no=12,missing=11,gain=121.245102,cover=20.3420658
				11:[24<0.5] yes=17,no=18,missing=17,gain=48.228302,cover=12.7223635
					17:leaf=-0.0953789428,cover=1.71374524
					18:leaf=1.55303252,cover=11.0086184
				12:leaf=-0.135797188,cover=7.61970234
			8:leaf=-0.148162752,cover=14.6862516
	2:leaf=-0.152545691,cover=228.613998
booster[37]:
0:[0<0.5] yes=1,no=2,missing=1,gain=27.4251213,cover=382.491455
	1:[15<1.5] yes=3,no=4,missing=3,gain=7.89970684,cover=153.877457
		3:[10<1.5] yes=5,no=6,missing=5,gain=19.86656,cover=107.786789
			5:leaf=-0.150733963,cover=58.3906441
			6:[24<1.5] yes=9,no=10,missing=9,gain=6.61858606,cover=49.3961487
				9:[5<1.5] yes=13,no=14,missing=13,gain=8.71509361,cover=41.6093674
					13:[24<0.5] yes=15,no=16,missing=15,gain=3.69240379,cover=34.4762001
						15:leaf=-0.10817378,cover=2.40852547
						16:leaf=0.241122752,cover=32.0676765
					14:leaf=-0.134915993,cover=7.13316631
				10:leaf=-0.135841012,cover=7.78678036
		4:[24<1.5] yes=7,no=8,missing=7,gain=9.22322369,cover=46.0906639
			7:leaf=-0.138504654,cover=9.54479885
			8:[5<1.5] yes=11,no=12,missing=11,gain=8.82426071,cover=36.5458679
				11:leaf=0.246166319,cover=30.4685898
				12:leaf=-0.131991416,cover=6.07727623
	2:leaf=-0.152545691,cover=228.613998
booster[38]:
0:[0<0.5] yes=1,no=2,missing=1,gain=283.701294,cover=480.965424
	1:[24<0.5] yes=3,no=4,missing=3,gain=52.0894775,cover=252.35141
		3:leaf=-0.145694643,cover=20.3991604
		4:[15<0.5] yes=5,no=6,missing=5,gain=0.770263672,cover=231.952255
			5:[5<0.5] yes=7,no=8,missing=7,gain=2.41885376,cover=134.120529
				7:[10<0.5] yes=11,no=12,missing=11,gain=2.44107056,cover=85.9998474
					11:leaf=0.475048572,cover=38.6533432
					12:[24<1.5] yes=19,no=20,missing=19,gain=21.8035622,cover=47.346508
						19:leaf=-0.137262896,cover=6.82172775
						20:leaf=0.424510062,cover=40.5247803
				8:[24<1.5] yes=13,no=14,missing=13,gain=9.94696808,cover=48.1206779
					13:[13<0.5] yes=21,no=22,missing=21,gain=1.87458801,cover=44.021656
						21:leaf=0.248280972,cover=19.8933029
						22:leaf=0.40576455,cover=24.1283512
					14:leaf=-0.12174996,cover=4.09902287
			6:[24<1.5] yes=9,no=10,missing=9,gain=1.36156464,cover=97.8317261
				9:[5<0.5] yes=15,no=16,missing=15,gain=7.03281021,cover=35.0892258
					15:leaf=0.407004714,cover=32.8708153
					16:leaf=-0.104207873,cover=2.21841002
				10:[5<0.5] yes=17,no=18,missing=17,gain=25.0030937,cover=62.7424965
					17:leaf=-0.149575591,cover=9.93476868
					18:[8<0.5] yes=23,no=24,missing=23,gain=1.17729187,cover=52.8077278
						23:leaf=0.286780477,cover=27.2338905
						24:leaf=0.416546285,cover=25.5738392
	2:leaf=-0.152545691,cover=228.613998
booster[39]:
0:[0<1.5] yes=1,no=2,missing=1,gain=101.567612,cover=466.155182
	1:[0<0.5] yes=3,no=4,missing=3,gain=132.201309,cover=313.47345
		3:leaf=-0.151657775,cover=93.7767563
		4:[24<0.5] yes=5,no=6,missing=5,gain=3.22817993,cover=219.696701
			5:[25<0.5] yes=7,no=8,missing=7,gain=1.15084839,cover=113.105316
				7:leaf=0.360539496,cover=43.1115723
				8:[8<0.5] yes=11,no=12,missing=11,gain=0.0399513245,cover=69.9937439
					11:[10<0.5] yes=13,no=14,missing=13,gain=0.479682922,cover=29.5751019
						13:leaf=0.347290695,cover=19.6951084
						14:leaf=0.209221557,cover=9.87999344
					12:[21<0.5] yes=15,no=16,missing=15,gain=0.325500488,cover=40.418644
						15:leaf=0.196677417,cover=22.5786476
						16:leaf=0.287763089,cover=17.8399963
			6:[24<1.5] yes=9,no=10,missing=9,gain=33.6877403,cover=106.591377
				9:leaf=-0.144630134,cover=17.5015736
				10:leaf=0.303613186,cover=89.0898056
	2:leaf=-0.152192786,cover=152.681717
booster[40]:
0:[0<1.5] yes=1,no=2,missing=1,gain=199.501221,cover=428.815704
	1:leaf=-0.152370363,cover=169.708038
	2:[25<1.5] yes=3,no=4,missing=3,gain=105.883087,cover=259.107666
		3:[24<1.5] yes=5,no=6,missing=5,gain=90.5925598,cover=213.955536
			5:[25<0.5] yes=7,no=8,missing=7,gain=12.3505554,cover=186.137634
				7:[24<0.5] yes=9,no=10,missing=9,gain=47.8399887,cover=82.3008118
					9:[15<1.5] yes=13,no=14,missing=13,gain=3.07557678,cover=60.1815758
						13:leaf=0.392799914,cover=37.7800636
						14:leaf=0.576733172,cover=22.4015121
					10:[10<0.5] yes=15,no=16,missing=15,gain=6.50100183,cover=22.1192322
						15:leaf=0.194292188,cover=6.33851528
						16:leaf=-0.144749075,cover=15.7807169
				8:[24<0.5] yes=11,no=12,missing=11,gain=7.29669189,cover=103.83683
					11:[8<0.5] yes=17,no=18,missing=17,gain=0.929603577,cover=61.0533867
						17:leaf=0.471517622,cover=32.0045433
						18:leaf=0.344150543,cover=29.0488472
					12:[10<1.5] yes=19,no=20,missing=19,gain=2.95996094,cover=42.7834396
						19:leaf=0.67060113,cover=29.9352627
						20:leaf=0.415119141,cover=12.8481789
			6:leaf=-0.147573218,cover=27.8178921
		4:leaf=-0.149687961,cover=45.1521416
booster[41]:
0:[25<0.5] yes=1,no=2,missing=1,gain=40.0106964,cover=360.03299
	1:[0<1.5] yes=3,no=4,missing=3,gain=41.9379807,cover=150.77417
		3:leaf=-0.150633931,cover=57.3208466
		4:[24<0.5] yes=5,no=6,missing=5,gain=33.5889664,cover=93.4533157
			5:leaf=-0.146860242,cover=21.927475
			6:[24<1.5] yes=7,no=8,missing=7,gain=33.5258904,cover=71.5258408
				7:[10<0.5] yes=9,no=10,missing=9,gain=0.922302246,cover=57.8506317
					9:[15<0.5] yes=11,no=12,missing=11,gain=11.4064617,cover=16.690937
						11:leaf=-0.129975602,cover=4.26809788
						12:leaf=0.408292532,cover=12.4228382
					10:[20<0.5] yes=13,no=14,missing=13,gain=2.17662048,cover=41.1596947
						13:leaf=0.225617647,cover=8.70282173
						14:leaf=0.442807078,cover=32.4568748
				8:leaf=-0.142487198,cover=13.67521
	2:leaf=-0.152459964,cover=209.25882
booster[42]:
0:[10<0.5] yes=1,no=2,missing=1,gain=108.313812,cover=426.167664
	1:[24<1.5] yes=3,no=4,missing=3,gain=71.6371384,cover=257.525513
		3:[0<1.5] yes=5,no=6,missing=5,gain=78.9568787,cover=204.005035
			5:[5<0.5] yes=7,no=8,missing=7,gain=10.3453979,cover=165.905594
				7:[23<0.5] yes=9,no=10,missing=9,gain=3.57672119,cover=124.401917
					9:[8<0.5] yes=13,no=14,missing=13,gain=2.73552704,cover=61.1682587
						13:leaf=0.230367169,cover=31.6803322
						14:leaf=0.376815528,cover=29.4879265
					10:[24<0.5] yes=15,no=16,missing=15,gain=2.8319397,cover=63.2336578
						15:leaf=0.496657014,cover=33.514473
						16:leaf=0.333288491,cover=29.7191849
				8:[0<0.5] yes=11,no=12,missing=11,gain=9.2462883,cover=41.503685
					11:leaf=-0.130313605,cover=6.26886654
					12:[24<0.5] yes=17,no=18,missing=17,gain=3.86263084,cover=35.2348175
						17:leaf=-0.104348429,cover=2.12203717
						18:leaf=0.273129731,cover=33.1127815
			6:leaf=-0.149305612,cover=38.0994377
		4:leaf=-0.150562361,cover=53.5204811
	2:leaf=-0.152265385,cover=168.642151
booster[43]:
0:[24<0.5] yes=1,no=2,missing=1,gain=72.3958435,cover=437.937531
	1:leaf=-0.151926756,cover=111.457428
	2:[24<1.5] yes=3,no=4,missing=3,gain=139.617554,cover=326.480103
		3:[25<1.5] yes=5,no=6,missing=5,gain=20.4379272,cover=218.901886
			5:[25<0.5] yes=7,no=8,missing=7,gain=28.8580475,cover=160.696518
				7:[0<0.5] yes=11,no=12,missing=11,gain=22.0083561,cover=70.4876785
					11:[10<1.5] yes=17,no=18,missing=17,gain=2.96313858,cover=42.5091553
						17:leaf=0.249214157,cover=33.1676598
						18:leaf=0.461529881,cover=9.34149551
					12:[5<0.5] yes=19,no=20,missing=19,gain=6.56339884,cover=27.9785213
						19:leaf=0.143021643,cover=10.637578
						20:leaf=-0.145296335,cover=17.3409424
				8:[0<1.5] yes=13,no=14,missing=13,gain=25.2900543,cover=90.208847
					13:[0<0.5] yes=21,no=22,missing=21,gain=14.7664986,cover=48.9249725
						21:leaf=0.339329392,cover=42.539257
						22:leaf=-0.132181361,cover=6.38571644
					14:leaf=0.604182839,cover=41.2838745
			6:[0<0.5] yes=9,no=10,missing=9,gain=25.9371128,cover=58.2053566
				9:[20<1.5] yes=15,no=16,missing=15,gain=0.0718078613,cover=36.5234489
					15:[5<1.5] yes=23,no=24,missing=23,gain=0.553262711,cover=26.790556
						23:leaf=0.314703584,cover=19.2145481
						24:leaf=0.169931412,cover=7.57600784
					16:[8<0.5] yes=25,no=26,missing=25,gain=1.56938553,cover=9.73289394
						25:leaf=0.278781027,cover=5.42514277
						26:leaf=0.0352881365,cover=4.30775118
				10:leaf=-0.146279991,cover=21.6819096
		4:leaf=-0.151779115,cover=107.578232
booster[44]:
0:[10<0.5] yes=1,no=2,missing=1,gain=59.1382065,cover=573.248413
	1:leaf=-0.152312309,cover=153.849121
	2:[0<1.5] yes=3,no=4,missing=3,gain=69.0214996,cover=419.399292
		3:[0<0.5] yes=5,no=6,missing=5,gain=38.4479103,cover=319.251648
			5:leaf=-0.14934364,cover=37.5914993
			6:[24<0.5] yes=7,no=8,missing=7,gain=0.475082397,cover=281.660156
				7:[5<0.5] yes=9,no=10,missing=9,gain=12.3502369,cover=96.0668182
					9:leaf=0.186712265,cover=85.0416031
					10:leaf=-0.141017541,cover=11.0252171
				8:[15<0.5] yes=11,no=12,missing=11,gain=2.259758,cover=185.593338
					11:leaf=0.201810852,cover=137.197632
					12:[24<1.5] yes=13,no=14,missing=13,gain=9.32132149,cover=48.3957062
						13:leaf=0.184589893,cover=39.1470261
						14:leaf=-0.138701662,cover=9.24867821
		4:leaf=-0.151708007,cover=100.147629
booster[45]:
0:[0<1.5] yes=1,no=2,missing=1,gain=17.4316158,cover=357.135468
	1:[0<0.5] yes=3,no=4,missing=3,gain=34.6305237,cover=204.453751
		3:leaf=-0.151657775,cover=93.7767563
		4:[5<1.5] yes=5,no=6,missing=5,gain=15.9244509,cover=110.676994
			5:[5<0.5] yes=7,no=8,missing=7,gain=27.1551647,cover=91.4667892
				7:[24<1.5] yes=9,no=10,missing=9,gain=25.5396976,cover=69.7873764
					9:leaf=-0.148254931,cover=30.7651119
					10:[10<0.5] yes=13,no=14,missing=13,gain=23.1613789,cover=39.0222664
						13:leaf=0.607993603,cover=9.01009846
						14:leaf=0.0776487365,cover=30.0121689
				8:[10<1.5] yes=11,no=12,missing=11,gain=56.0091782,cover=21.6794128
					11:[10<0.5] yes=15,no=16,missing=15,gain=31.9022408,cover=18.97159
						15:leaf=0.603916526,cover=8.68879128
						16:leaf=-0.14375411,cover=10.2827988
					12:leaf=1.50372159,cover=2.70782232
			6:leaf=-0.147910148,cover=19.2101994
	2:leaf=-0.152192786,cover=152.681717
booster[46]:
0:[0<1.5] yes=1,no=2,missing=1,gain=8.66178131,cover=367.880646
	1:[0<0.5] yes=3,no=4,missing=3,gain=16.2812023,cover=215.198944
		3:leaf=-0.151657775,cover=93.7767563
		4:[5<1.5] yes=5,no=6,missing=5,gain=8.14881897,cover=121.42218
			5:[15<1.5] yes=7,no=8,missing=7,gain=15.5760555,cover=85.0025177
				7:leaf=-0.150146902,cover=47.2717628
				8:[24<1.5] yes=11,no=12,missing=11,gain=11.5297565,cover=37.7307549
					11:leaf=-0.140603408,cover=11.2483683
					12:[10<1.5] yes=15,no=16,missing=15,gain=5.2957468,cover=26.4823875
						15:leaf=0.260480672,cover=23.214159
						16:leaf=-0.117949307,cover=3.26822805
			6:[24<0.5] yes=9,no=10,missing=9,gain=7.87507105,cover=36.4196587
				9:[10<1.5] yes=13,no=14,missing=13,gain=7.70490456,cover=29.1338329
					13:leaf=0.266516507,cover=24.3347244
					14:leaf=-0.127332613,cover=4.79910851
				10:leaf=-0.13454029,cover=7.28582621
	2:leaf=-0.152192786,cover=152.681717
booster[47]:
0:[15<0.5] yes=1,no=2,missing=1,gain=24.8476372,cover=358.009308
	1:[0<1.5] yes=3,no=4,missing=3,gain=20.1988525,cover=189.333755
		3:[24<1.5] yes=5,no=6,missing=5,gain=26.6192322,cover=136.592606
			5:[21<0.5] yes=7,no=8,missing=7,gain=3.84110832,cover=99.8825989
				7:[5<0.5] yes=9,no=10,missing=9,gain=3.55523205,cover=52.0989304
					9:[10<0.5] yes=13,no=14,missing=13,gain=18.002594,cover=21.8559799
						13:leaf=-0.1383259,cover=9.06504917
						14:leaf=0.394232005,cover=12.7909307
					10:[10<0.5] yes=15,no=16,missing=15,gain=11.2363501,cover=30.2429523
						15:leaf=0.210714549,cover=13.8352118
						16:leaf=-0.144680917,cover=16.4077396
				8:[25<0.5] yes=11,no=12,missing=11,gain=0.851823807,cover=47.7836685
					11:[5<1.5] yes=17,no=18,missing=17,gain=1.60686731,cover=17.6356964
						17:leaf=0.189162716,cover=13.2689276
						18:leaf=-0.015478068,cover=4.36676979
					12:[8<0.5] yes=19,no=20,missing=19,gain=1.20220184,cover=30.1479721
						19:leaf=0.152544364,cover=13.028636
						20:leaf=0.296850085,cover=17.1193371
			6:leaf=-0.149125755,cover=36.7100067
		4:leaf=-0.150289848,cover=52.7411499
	2:leaf=-0.152348399,cover=168.675552
booster[48]:
0:[24<1.5] yes=1,no=2,missing=1,gain=204.419144,cover=474.823914
	1:leaf=-0.152543172,cover=214.904709
	2:[0<1.5] yes=3,no=4,missing=3,gain=87.1352844,cover=259.919189
		3:[18<0.5] yes=5,no=6,missing=5,gain=1.26846313,cover=217.671799
			5:[5<1.5] yes=7,no=8,missing=7,gain=1.38198853,cover=111.29528
				7:leaf=0.366532177,cover=91.4848633
				8:[15<1.5] yes=11,no=12,missing=11,gain=3.10840607,cover=19.8104172
					11:[0<0.5] yes=17,no=18,missing=17,gain=4.3384881,cover=11.7021761
						17:leaf=-0.124723502,cover=3.5244205
						18:leaf=0.241353825,cover=8.17775631
					12:[20<0.5] yes=19,no=20,missing=19,gain=0.535877228,cover=8.10824108
						19:leaf=0.179187879,cover=2.98733711
						20:leaf=0.452176332,cover=5.12090397
			6:[15<1.5] yes=9,no=10,missing=9,gain=0.692527771,cover=106.376518
				9:[10<1.5] yes=13,no=14,missing=13,gain=2.81691742,cover=87.47995
					13:[0<0.5] yes=21,no=22,missing=21,gain=1.54632568,cover=70.5500565
						21:leaf=0.236746013,cover=37.9924088
						22:leaf=0.348041773,cover=32.5576477
					14:[0<0.5] yes=23,no=24,missing=23,gain=2.59409571,cover=16.9298935
						23:leaf=0.188950315,cover=14.5030823
						24:leaf=-0.111064799,cover=2.42681074
				10:[5<1.5] yes=15,no=16,missing=15,gain=1.1930275,cover=18.8965721
					15:[10<1.5] yes=25,no=26,missing=25,gain=7.52479792,cover=8.65309048
						25:leaf=-0.118024834,cover=3.1716404
						26:leaf=0.41626817,cover=5.48145008
					16:[13<0.5] yes=27,no=28,missing=27,gain=1.5253582,cover=10.2434807
						27:leaf=0.246565312,cover=5.26393747
						28:leaf=0.567048192,cover=4.97954321
		4:leaf=-0.149343118,cover=42.2473984
booster[49]:
0:[0<1.5] yes=1,no=2,missing=1,gain=68.3831482,cover=605.035339
	1:leaf=-0.152370363,cover=169.708038
	2:[15<0.5] yes=3,no=4,missing=3,gain=33.4915543,cover=435.327301
		3:leaf=-0.150300473,cover=52.8524895
		4:[10<0.5] yes=5,no=6,missing=5,gain=22.5725594,cover=382.474792
			5:[25<0.5] yes=7,no=8,missing=7,gain=12.5309715,cover=138.358673
				7:[5<0.5] yes=11,no=12,missing=11,gain=15.4615946,cover=44.0013466
					11:leaf=0.206505656,cover=26.4613228
					12:leaf=-0.148600131,cover=17.5400238
				8:[25<1.5] yes=13,no=14,missing=13,gain=23.7441635,cover=94.3573227
					13:[5<0.5] yes=17,no=18,missing=17,gain=56.4564362,cover=50.4489441
						17:leaf=0.209876344,cover=38.4600334
						18:leaf=0.941937566,cover=11.9889116
					14:[5<0.5] yes=19,no=20,missing=19,gain=13.7536478,cover=43.9083748
						19:leaf=0.206947654,cover=30.1502323
						20:leaf=-0.145904168,cover=13.7581434
			6:[5<0.5] yes=9,no=10,missing=9,gain=34.147934,cover=244.116135
				9:[25<1.5] yes=15,no=16,missing=15,gain=12.2165279,cover=185.654205
					15:[25<0.5] yes=21,no=22,missing=21,gain=25.7420807,cover=118.640564
						21:leaf=0.211226031,cover=50.7347984
						22:leaf=-0.0689417943,cover=67.9057617
					16:leaf=0.211739272,cover=67.0136337
				10:leaf=-0.150902838,cover=58.461937
booster[50]:
0:[0<1.5] yes=1,no=2,missing=1,gain=73.3342361,cover=627.272888
	1:leaf=-0.152370363,cover=169.708038
	2:[5<1.5] yes=3,no=4,missing=3,gain=13.8611469,cover=457.564819
		3:[5<0.5] yes=5,no=6,missing=5,gain=13.9119797,cover=401.662872
			5:[25<0.5] yes=9,no=10,missing=9,gain=3.90491438,cover=52.9835205
				9:leaf=-0.1466102,cover=19.9105949
				10:[25<1.5] yes=15,no=16,missing=15,gain=8.82406712,cover=33.0729256
					15:[24<0.5] yes=23,no=24,missing=23,gain=13.5804367,cover=17.778017
						23:leaf=-0.135701954,cover=7.60798883
						24:leaf=0.370557994,cover=10.1700287
					16:leaf=-0.143556103,cover=15.2949066
			6:[25<1.5] yes=11,no=12,missing=11,gain=11.3905182,cover=348.679352
				11:[25<0.5] yes=17,no=18,missing=17,gain=19.770052,cover=234.69101
					17:[15<0.5] yes=25,no=26,missing=25,gain=2.74977493,cover=102.800865
						25:leaf=0.237686679,cover=43.0073586
						26:leaf=0.133121341,cover=59.7935066
					18:[24<0.5] yes=27,no=28,missing=27,gain=25.0995064,cover=131.890137
						27:leaf=0.180847555,cover=45.8006668
						28:leaf=-0.0915609151,cover=86.0894699
				12:[15<0.5] yes=19,no=20,missing=19,gain=1.62766266,cover=113.988342
					19:leaf=0.238274351,cover=52.4153252
					20:[15<1.5] yes=29,no=30,missing=29,gain=13.9088135,cover=61.5730171
						29:leaf=-0.140844181,cover=10.8175821
						30:leaf=0.223398566,cover=50.7554321
		4:[25<0.5] yes=7,no=8,missing=7,gain=3.07681155,cover=55.9019699
			7:leaf=-0.146975532,cover=21.6323776
			8:[25<1.5] yes=13,no=14,missing=13,gain=6.50914145,cover=34.2695923
				13:[24<0.5] yes=21,no=22,missing=21,gain=8.48215008,cover=18.8362675
					21:leaf=-0.13466087,cover=7.14414406
					22:[24<1.5] yes=31,no=32,missing=31,gain=14.4193563,cover=11.6921234
						31:leaf=0.511564612,cover=6.89942408
						32:leaf=-0.126524076,cover=4.79269886
				14:leaf=-0.143825069,cover=15.4333239
booster[51]:
0:[0<1.5] yes=1,no=2,missing=1,gain=68.8173828,cover=652.2771
	1:leaf=-0.152372837,cover=169.822617
	2:[15<1.5] yes=3,no=4,missing=3,gain=30.991951,cover=482.454468
		3:[10<1.5] yes=5,no=6,missing=5,gain=30.4144325,cover=431.579376
			5:[5<1.5] yes=7,no=8,missing=7,gain=32.5796394,cover=297.603607
				7:leaf=-0.151006803,cover=61.6561012
				8:[24<0.5] yes=11,no=12,missing=11,gain=22.7353115,cover=235.947495
					11:leaf=0.230698004,cover=72.666893
					12:[24<1.5] yes=17,no=18,missing=17,gain=43.2921295,cover=163.280609
						17:leaf=-0.088225387,cover=103.079292
						18:leaf=0.229771629,cover=60.201313
			6:[25<1.5] yes=9,no=10,missing=9,gain=5.01715851,cover=133.975769
				9:[25<0.5] yes=13,no=14,missing=13,gain=12.4681168,cover=89.6995773
					13:[5<1.5] yes=19,no=20,missing=19,gain=13.083849,cover=45.275135
						19:leaf=-0.14058277,cover=10.7407532
						20:leaf=0.227630332,cover=34.5343819
					14:[5<1.5] yes=21,no=22,missing=21,gain=29.1038208,cover=44.4244423
						21:leaf=0.811695516,cover=9.40233612
						22:leaf=0.227904931,cover=35.0221062
				10:[5<1.5] yes=15,no=16,missing=15,gain=13.8256807,cover=44.2761917
					15:leaf=-0.143593371,cover=11.7753077
					16:leaf=0.225501284,cover=32.500885
		4:leaf=-0.150302112,cover=50.8750877
booster[52]:
0:[24<1.5] yes=1,no=2,missing=1,gain=32.2028885,cover=401.630707
	1:leaf=-0.152543172,cover=214.904709
	2:[0<1.5] yes=3,no=4,missing=3,gain=32.2544022,cover=186.725998
		3:leaf=-0.151078194,cover=65.3251572
		4:[5<0.5] yes=5,no=6,missing=5,gain=28.5083523,cover=121.400841
			5:[15<0.5] yes=7,no=8,missing=7,gain=5.13441467,cover=92.5161819
				7:[20<0.5] yes=9,no=10,missing=9,gain=0.383228302,cover=88.5570602
					9:[21<0.5] yes=11,no=12,missing=11,gain=0.670646667,cover=34.9404335
						11:leaf=0.210769996,cover=17.4736404
						12:leaf=0.113498449,cover=17.466795
					10:leaf=0.225824147,cover=53.6166267
				8:leaf=-0.120830148,cover=3.95911932
			6:leaf=-0.147825569,cover=28.8846607
booster[53]:
0:[24<1.5] yes=1,no=2,missing=1,gain=33.660408,cover=399.44928
	1:leaf=-0.152543172,cover=214.904709
	2:[0<1.5] yes=3,no=4,missing=3,gain=34.1417809,cover=184.544586
		3:leaf=-0.151078194,cover=65.3251572
		4:[5<1.5] yes=5,no=6,missing=5,gain=13.089262,cover=119.219437
			5:[5<0.5] yes=7,no=8,missing=7,gain=15.906126,cover=104.744957
				7:leaf=-0.142201334,cover=13.4740543
				8:[15<0.5] yes=9,no=10,missing=9,gain=2.81260681,cover=91.2709045
					9:leaf=-0.103357837,cover=2.13689089
					10:[15<1.5] yes=11,no=12,missing=11,gain=2.78369904,cover=89.1340179
						11:leaf=0.215359345,cover=87.113121
						12:leaf=-0.101350106,cover=2.02089787
			6:leaf=-0.143085554,cover=14.474473
booster[54]:
0:[15<1.5] yes=1,no=2,missing=1,gain=41.739502,cover=393.818176
	1:leaf=-0.152614355,cover=240.672104
	2:[24<1.5] yes=3,no=4,missing=3,gain=39.125515,cover=153.146088
		3:leaf=-0.150520369,cover=56.0785408
		4:[0<1.5] yes=5,no=6,missing=5,gain=14.7907028,cover=97.067543
			5:leaf=-0.141516849,cover=11.946867
			6:[5<1.5] yes=7,no=8,missing=7,gain=5.22232056,cover=85.1206741
				7:leaf=-0.118950725,cover=3.66306973
				8:[20<0.5] yes=9,no=10,missing=9,gain=0.468002319,cover=81.4576035
					9:[10<1.5] yes=11,no=12,missing=11,gain=0.0966739655,cover=23.9386806
						11:leaf=0.297454268,cover=16.4354897
						12:leaf=0.180267543,cover=7.50319099
					10:[23<0.5] yes=13,no=14,missing=13,gain=0.243787766,cover=57.5189247
						13:leaf=0.226899564,cover=27.8694267
						14:leaf=0.163230643,cover=29.649498
booster[55]:
0:[25<1.5] yes=1,no=2,missing=1,gain=23.5036163,cover=371.76181
	1:leaf=-0.152576551,cover=221.311752
	2:[0<1.5] yes=3,no=4,missing=3,gain=23.2656975,cover=150.450043
		3:leaf=-0.150596872,cover=56.0512161
		4:[5<0.5] yes=5,no=6,missing=5,gain=28.7668648,cover=94.3988266
			5:[24<1.5] yes=7,no=8,missing=7,gain=6.85587692,cover=64.4548111
				7:[15<0.5] yes=9,no=10,missing=9,gain=4.37461472,cover=59.79916
					9:[8<0.5] yes=11,no=12,missing=11,gain=0.167324066,cover=57.1128426
						11:leaf=0.207191318,cover=27.5398445
						12:leaf=0.27882275,cover=29.5729961
					10:leaf=-0.110299066,cover=2.68631887
				8:leaf=-0.125776812,cover=4.65565395
			6:leaf=-0.148097619,cover=29.9440098
booster[56]:
0:[25<1.5] yes=1,no=2,missing=1,gain=23.5527802,cover=349.723175
	1:leaf=-0.152576551,cover=221.311752
	2:[0<1.5] yes=3,no=4,missing=3,gain=28.5434551,cover=128.411407
		3:leaf=-0.150592133,cover=56.0088005
		4:[15<1.5] yes=5,no=6,missing=5,gain=22.0794296,cover=72.4026108
			5:[15<0.5] yes=7,no=8,missing=7,gain=36.0968399,cover=54.0410385
				7:leaf=-0.143954694,cover=15.994112
				8:[24<1.5] yes=9,no=10,missing=9,gain=16.1038475,cover=38.0469246
					9:[5<1.5] yes=11,no=12,missing=11,gain=7.96843719,cover=33.5400238
						11:leaf=0.488998741,cover=31.6527214
						12:leaf=-0.0990986526,cover=1.88730407
					10:leaf=-0.125150695,cover=4.50689983
			6:leaf=-0.146161258,cover=18.3615723
booster[57]:
0:[15<1.5] yes=1,no=2,missing=1,gain=19.9892464,cover=361.090851
	1:leaf=-0.152614355,cover=240.672104
	2:[25<1.5] yes=3,no=4,missing=3,gain=27.4171219,cover=120.418755
		3:leaf=-0.150640368,cover=57.7954865
		4:[5<1.5] yes=5,no=6,missing=5,gain=13.093401,cover=62.6232681
			5:leaf=-0.140755579,cover=11.914032
			6:[24<1.5] yes=7,no=8,missing=7,gain=9.06922531,cover=50.7092361
				7:[8<0.5] yes=9,no=10,missing=9,gain=0.749004364,cover=44.7701225
					9:[22<0.5] yes=11,no=12,missing=11,gain=0.192625046,cover=22.414423
						11:leaf=0.233993113,cover=9.31564713
						12:leaf=0.141215503,cover=13.0987759
					10:leaf=0.292043865,cover=22.3556995
				8:leaf=-0.131484061,cover=5.93911409
booster[58]:
0:[5<0.5] yes=1,no=2,missing=1,gain=124.816406,cover=529.377991
	1:[10<0.5] yes=3,no=4,missing=3,gain=20.1704407,cover=340.162994
		3:[0<1.5] yes=7,no=8,missing=7,gain=6.23678589,cover=210.844955
			7:[24<1.5] yes=13,no=14,missing=13,gain=1.37646484,cover=173.944443
				13:[21<0.5] yes=21,no=22,missing=21,gain=0.707427979,cover=120.813271
					21:[23<0.5] yes=33,no=34,missing=33,gain=4.71130371,cover=59.738575
						33:leaf=0.492886424,cover=29.5785389
						34:leaf=0.298613936,cover=30.1600361
					22:[20<0.5] yes=35,no=36,missing=35,gain=0.843826294,cover=61.0746956
						35:leaf=0.238601699,cover=18.9953957
						36:leaf=0.35268569,cover=42.0792999
				14:[15<0.5] yes=23,no=24,missing=23,gain=11.7415695,cover=53.1311684
					23:[23<0.5] yes=37,no=38,missing=37,gain=0.203601837,cover=48.0420494
						37:leaf=0.271298915,cover=23.2053242
						38:leaf=0.371188462,cover=24.8367252
					24:leaf=-0.12849316,cover=5.08911705
			8:[25<1.5] yes=15,no=16,missing=15,gain=7.49273491,cover=36.9005165
				15:[24<1.5] yes=25,no=26,missing=25,gain=5.97924232,cover=31.9412403
					25:[15<0.5] yes=39,no=40,missing=39,gain=3.7943325,cover=28.8117886
						39:leaf=0.317271531,cover=27.0915813
						40:leaf=-0.0957135186,cover=1.7202065
					26:leaf=-0.115778103,cover=3.12945247
				16:leaf=-0.127382115,cover=4.95927525
		4:[15<0.5] yes=9,no=10,missing=9,gain=27.0732689,cover=129.318054
			9:[25<1.5] yes=17,no=18,missing=17,gain=13.7709961,cover=108.657959
				17:[24<0.5] yes=27,no=28,missing=27,gain=5.12453461,cover=76.2338562
					27:[0<1.5] yes=41,no=42,missing=41,gain=14.4589806,cover=33.2161484
						41:leaf=-0.12263906,cover=4.04123068
						42:leaf=0.45561713,cover=29.1749172
					28:[0<0.5] yes=43,no=44,missing=43,gain=22.6134739,cover=43.0177116
						43:leaf=0.342087448,cover=31.758213
						44:leaf=-0.140843987,cover=11.2594995
				18:[0<0.5] yes=29,no=30,missing=29,gain=13.0683365,cover=32.4241028
					29:[24<1.5] yes=45,no=46,missing=45,gain=3.7363205,cover=17.9405212
						45:leaf=-0.105162993,cover=2.19898915
						46:leaf=0.272787094,cover=15.7415323
					30:leaf=-0.148716718,cover=14.4835796
			10:leaf=-0.14527832,cover=20.6600876
	2:[15<0.5] yes=5,no=6,missing=5,gain=32.1734657,cover=189.215012
		5:[10<0.5] yes=11,no=12,missing=11,gain=59.6774712,cover=82.2412872
			11:[24<0.5] yes=19,no=20,missing=19,gain=16.4576569,cover=39.7345734
				19:leaf=-0.127198979,cover=5.07814455
				20:[0<0.5] yes=31,no=32,missing=31,gain=10.0651703,cover=34.6564293
					31:leaf=-0.10875129,cover=2.54383707
					32:[0<1.5] yes=47,no=48,missing=47,gain=5.96022797,cover=32.1125908
						47:leaf=0.362567186,cover=22.9408474
						48:leaf=0.687541604,cover=9.17174435
			12:leaf=-0.149373069,cover=42.5067177
		6:leaf=-0.15198037,cover=106.973724
booster[59]:
0:[15<1.5] yes=1,no=2,missing=1,gain=41.9594002,cover=401.154114
	1:[5<0.5] yes=3,no=4,missing=3,gain=52.0462799,cover=319.438141
		3:[15<0.5] yes=5,no=6,missing=5,gain=26.6757412,cover=129.219009
			5:leaf=-0.151773125,cover=87.5729065
			6:[10<0.5] yes=9,no=10,missing=9,gain=39.6867752,cover=41.6461029
				9:leaf=-0.146606505,cover=21.293642
				10:[10<1.5] yes=15,no=16,missing=15,gain=15.8836555,cover=20.3524609
					15:[24<0.5] yes=23,no=24,missing=23,gain=7.35463333,cover=16.7582169
						23:leaf=-0.0852815211,cover=1.29348302
						24:leaf=0.598911524,cover=15.4647341
					16:leaf=-0.118603379,cover=3.59424305
		4:[5<1.5] yes=7,no=8,missing=7,gain=46.3855057,cover=190.219131
			7:[0<1.5] yes=11,no=12,missing=11,gain=28.5963516,cover=145.321045
				11:[10<0.5] yes=17,no=18,missing=17,gain=20.2238617,cover=66.2914886
					17:[15<0.5] yes=25,no=26,missing=25,gain=20.9799156,cover=32.2691116
						25:leaf=-0.138314083,cover=9.24634743
						26:leaf=0.381502777,cover=23.0227661
					18:[10<1.5] yes=27,no=28,missing=27,gain=22.9714813,cover=34.022377
						27:leaf=0.656286359,cover=30.4711666
						28:leaf=-0.118699476,cover=3.55121112
				12:[24<0.5] yes=19,no=20,missing=19,gain=26.3842335,cover=79.0295486
					19:[25<1.5] yes=29,no=30,missing=29,gain=12.563652,cover=46.3066521
						29:leaf=0.343369544,cover=41.0752068
						30:leaf=-0.129212871,cover=5.23144674
					20:[24<1.5] yes=31,no=32,missing=31,gain=2.28407669,cover=32.7228966
						31:leaf=0.0119525809,cover=17.9890099
						32:leaf=-0.143941477,cover=14.7338858
			8:[15<0.5] yes=13,no=14,missing=13,gain=7.69072342,cover=44.898098
				13:leaf=-0.148361459,cover=33.6300507
				14:[10<0.5] yes=21,no=22,missing=21,gain=6.96523762,cover=11.2680464
					21:leaf=-0.126470163,cover=4.89791107
					22:[10<1.5] yes=33,no=34,missing=33,gain=8.59893703,cover=6.37013483
						33:leaf=0.545429528,cover=3.9476254
						34:leaf=-0.107325293,cover=2.42250943
	2:leaf=-0.151327372,cover=81.7159805
booster[60]:
0:[5<1.5] yes=1,no=2,missing=1,gain=105.16275,cover=414.470154
	1:[15<1.5] yes=3,no=4,missing=3,gain=21.5636406,cover=244.360138
		3:leaf=-0.152623504,cover=197.211243
		4:[10<1.5] yes=7,no=8,missing=7,gain=40.3777237,cover=47.1488953
			7:leaf=-0.147552818,cover=28.9375134
			8:[24<0.5] yes=13,no=14,missing=13,gain=8.47247696,cover=18.2113838
				13:leaf=-0.103833258,cover=2.18810582
				14:[24<1.5] yes=19,no=20,missing=19,gain=7.4509964,cover=16.0232773
					19:leaf=0.827091813,cover=3.74869919
					20:[0<1.5] yes=29,no=30,missing=29,gain=3.21630287,cover=12.274579
						29:leaf=0.370577931,cover=11.0538874
						30:leaf=-0.0832566097,cover=1.22069156
	2:[10<1.5] yes=5,no=6,missing=5,gain=15.0194473,cover=170.110001
		5:[15<1.5] yes=9,no=10,missing=9,gain=28.1485786,cover=96.5669708
			9:leaf=-0.146601453,cover=25.8191032
			10:[0<1] yes=15,no=16,missing=15,gain=5.88032532,cover=70.7478714
				15:[24<1.5] yes=21,no=22,missing=21,gain=2.97823715,cover=26.0233955
					21:leaf=-0.0815593153,cover=1.17177463
					22:[20<1.5] yes=31,no=32,missing=31,gain=1.24441528,cover=24.8516216
						31:leaf=0.395798445,cover=17.9166031
						32:leaf=0.193298236,cover=6.93501711
				16:[24<0.5] yes=23,no=24,missing=23,gain=18.0398769,cover=44.724472
					23:[25<1.5] yes=33,no=34,missing=33,gain=4.29673004,cover=31.4750538
						33:leaf=0.294164777,cover=29.3241348
						34:leaf=-0.104907706,cover=2.15091753
					24:leaf=-0.142886102,cover=13.2494202
		6:[24<1.5] yes=11,no=12,missing=11,gain=14.3171387,cover=73.5430298
			11:[0<1.5] yes=17,no=18,missing=17,gain=4.00198364,cover=67.6363831
				17:[21<0.5] yes=25,no=26,missing=25,gain=0.912734985,cover=40.14888
					25:leaf=0.461360991,cover=21.8092518
					26:[23<0.5] yes=35,no=36,missing=35,gain=0.951217651,cover=18.3396282
						35:leaf=0.377571106,cover=10.3860073
						36:leaf=0.189632699,cover=7.95362139
				18:[25<1.5] yes=27,no=28,missing=27,gain=6.65133667,cover=27.487505
					27:[15<1.5] yes=37,no=38,missing=37,gain=4.94514847,cover=23.9039745
						37:leaf=-0.103634045,cover=2.16026139
						38:leaf=0.331668615,cover=21.7437115
					28:leaf=-0.120489806,cover=3.58353138
			12:leaf=-0.130612075,cover=5.90664721
booster[61]:
0:[25<0.5] yes=1,no=2,missing=1,gain=3.17284775,cover=332.167328
	1:[5<0.5] yes=3,no=4,missing=3,gain=5.36630058,cover=122.908493
		3:[0<1.5] yes=5,no=6,missing=5,gain=12.5607796,cover=60.1588058
			5:leaf=-0.148787081,cover=32.7543411
			6:[10<0.5] yes=7,no=8,missing=7,gain=9.41259956,cover=27.4044685
				7:leaf=-0.139986098,cover=7.99433947
				8:[24<0.5] yes=9,no=10,missing=9,gain=11.530467,cover=19.4101276
					9:leaf=-0.129234716,cover=5.28311062
					10:[24<1.5] yes=11,no=12,missing=11,gain=9.77612495,cover=14.127018
						11:leaf=0.480298638,cover=11.3964853
						12:leaf=-0.111857079,cover=2.73053265
		4:leaf=-0.15087603,cover=62.7496872
	2:leaf=-0.152459964,cover=209.25882
booster[62]:
0:[25<0.5] yes=1,no=2,missing=1,gain=5.05682373,cover=331.179993
	1:[0<1.5] yes=3,no=4,missing=3,gain=7.13132191,cover=121.921173
		3:leaf=-0.150633931,cover=57.3208466
		4:[24<0.5] yes=5,no=6,missing=5,gain=7.73581266,cover=64.6003265
			5:leaf=-0.146860242,cover=21.927475
			6:[24<1.5] yes=7,no=8,missing=7,gain=10.586256,cover=42.6728516
				7:[15<0.5] yes=9,no=10,missing=9,gain=12.0029764,cover=28.9976425
					9:leaf=-0.136295959,cover=7.80984402
					10:[15<1.5] yes=11,no=12,missing=11,gain=23.4434471,cover=21.1877995
						11:leaf=0.502897501,cover=13.7512836
						12:leaf=-0.135374218,cover=7.43651533
				8:leaf=-0.142487198,cover=13.67521
	2:leaf=-0.152459964,cover=209.25882
booster[63]:
0:[15<1.5] yes=1,no=2,missing=1,gain=10.4561577,cover=338.235382
	1:leaf=-0.152614355,cover=240.672104
	2:[25<0.5] yes=3,no=4,missing=3,gain=16.3257904,cover=97.5632706
		3:[5<1.5] yes=5,no=6,missing=5,gain=11.347126,cover=45.9239769
			5:leaf=-0.141472265,cover=12.606185
			6:[24<0.5] yes=7,no=8,missing=7,gain=11.3381414,cover=33.3177948
				7:leaf=-0.135221198,cover=7.21549034
				8:[24<1.5] yes=9,no=10,missing=9,gain=12.0322475,cover=26.1023026
					9:leaf=0.368743658,cover=21.1610451
					10:leaf=-0.127775654,cover=4.94125748
		4:leaf=-0.150194556,cover=51.6392937
booster[64]:
0:[0<1.5] yes=1,no=2,missing=1,gain=161.738159,cover=578.611816
	1:leaf=-0.151633888,cover=139.437256
	2:[25<1.5] yes=3,no=4,missing=3,gain=21.3574219,cover=439.174591
		3:[24<1.5] yes=5,no=6,missing=5,gain=96.7928619,cover=212.560333
			5:leaf=-0.150559515,cover=66.2114868
			6:[18<0.5] yes=9,no=10,missing=9,gain=0.250259399,cover=146.348846
				9:[23<0.5] yes=13,no=14,missing=13,gain=0.468208313,cover=70.1668625
					13:[13<0.5] yes=21,no=22,missing=21,gain=0.288669586,cover=33.0124321
						21:leaf=0.198843345,cover=15.7812281
						22:leaf=0.301118642,cover=17.231205
					14:leaf=0.346752018,cover=37.1544266
				10:[25<0.5] yes=15,no=16,missing=15,gain=1.24573517,cover=76.1819839
					15:[15<0.5] yes=23,no=24,missing=23,gain=1.39760971,cover=37.5158463
						23:leaf=0.189658329,cover=12.0565262
						24:leaf=0.346420616,cover=25.4593182
					16:[8<0.5] yes=25,no=26,missing=25,gain=0.848875046,cover=38.6661377
						25:leaf=0.248046786,cover=22.4676666
						26:leaf=0.138921916,cover=16.1984711
		4:[21<0.5] yes=7,no=8,missing=7,gain=0.0414581299,cover=226.614258
			7:[20<1.5] yes=11,no=12,missing=11,gain=1.05831146,cover=111.523048
				11:[22<0.5] yes=17,no=18,missing=17,gain=0.421188354,cover=72.167717
					17:[20<0.5] yes=27,no=28,missing=27,gain=0.223490715,cover=32.959877
						27:leaf=0.225285307,cover=16.1877232
						28:leaf=0.145738333,cover=16.7721519
					18:[18<0.5] yes=29,no=30,missing=29,gain=0.0511569977,cover=39.20784
						29:leaf=0.205448702,cover=16.2999096
						30:leaf=0.289448053,cover=22.9079304
				12:[10<0.5] yes=19,no=20,missing=19,gain=1.10467911,cover=39.3553314
					19:[18<0.5] yes=31,no=32,missing=31,gain=1.31154656,cover=7.53397703
						31:leaf=0.0148309218,cover=3.26387691
						32:leaf=0.261667699,cover=4.27010012
					20:leaf=0.338080436,cover=31.8213558
			8:leaf=0.300110817,cover=115.091202
booster[65]:
0:[5<0.5] yes=1,no=2,missing=1,gain=49.8416328,cover=477.938324
	1:[24<1.5] yes=3,no=4,missing=3,gain=24.1180687,cover=335.772827
		3:[0<1.5] yes=5,no=6,missing=5,gain=21.5753365,cover=293.317139
			5:[25<1.5] yes=7,no=8,missing=7,gain=0.387248993,cover=263.47049
				7:[10<1.5] yes=9,no=10,missing=9,gain=0.428291321,cover=171.301636
					9:[20<0.5] yes=13,no=14,missing=13,gain=0.180418015,cover=159.14061
						13:leaf=0.129901007,cover=52.446991
						14:leaf=0.101589389,cover=106.693619
					10:[13<0.5] yes=15,no=16,missing=15,gain=0.967874587,cover=12.1610279
						15:leaf=-0.0363841094,cover=5.97448444
						16:leaf=0.122374117,cover=6.18654346
				8:[20<0.5] yes=11,no=12,missing=11,gain=0.0344829559,cover=92.1688538
					11:[15<1.5] yes=17,no=18,missing=17,gain=0.378915548,cover=26.7451363
						17:leaf=0.130320817,cover=20.5450993
						18:leaf=0.037988741,cover=6.20003748
					12:leaf=0.14408493,cover=65.4237137
			6:leaf=-0.147856817,cover=29.8466396
		4:leaf=-0.149244413,cover=42.4556923
	2:leaf=-0.151583955,cover=142.165497
booster[66]:
0:[24<0.5] yes=1,no=2,missing=1,gain=79.4109726,cover=551.959656
	1:[0<0.5] yes=3,no=4,missing=3,gain=25.1417236,cover=324.096039
		3:leaf=-0.144044146,cover=17.1113205
		4:[25<1.5] yes=7,no=8,missing=7,gain=4.01379395,cover=306.984711
			7:[0<1.5] yes=11,no=12,missing=11,gain=0.44128418,cover=246.946121
				11:[20<0.5] yes=17,no=18,missing=17,gain=0.366970062,cover=87.45755
					17:[25<0.5] yes=25,no=26,missing=25,gain=1.14272308,cover=28.4816341
						25:leaf=0.107238054,cover=16.7006588
						26:leaf=0.2397082,cover=11.7809744
					18:[21<0.5] yes=27,no=28,missing=27,gain=0.0495262146,cover=58.9759178
						27:leaf=0.253667653,cover=33.8961563
						28:leaf=0.191891715,cover=25.0797634
				12:[21<0.5] yes=19,no=20,missing=19,gain=0.571998596,cover=159.488571
					19:[18<0.5] yes=29,no=30,missing=29,gain=0.0208206177,cover=73.872406
						29:leaf=0.240524083,cover=31.9862289
						30:leaf=0.305997133,cover=41.8861809
					20:[13<0.5] yes=31,no=32,missing=31,gain=1.03421783,cover=85.6161575
						31:leaf=0.183988124,cover=42.3596115
						32:leaf=0.265152991,cover=43.2565422
			8:[0<1.5] yes=13,no=14,missing=13,gain=15.3257704,cover=60.0385971
				13:[21<0.5] yes=21,no=22,missing=21,gain=0.29551506,cover=47.7263985
					21:[23<0.5] yes=33,no=34,missing=33,gain=0.431209564,cover=26.746933
						33:leaf=0.184884474,cover=12.9045286
						34:leaf=0.303890795,cover=13.8424044
					22:[8<0.5] yes=35,no=36,missing=35,gain=0.586184025,cover=20.9794636
						35:leaf=0.25558427,cover=6.410923
						36:leaf=0.127383113,cover=14.5685406
				14:leaf=-0.141165361,cover=12.3121996
	2:[25<0.5] yes=5,no=6,missing=5,gain=39.3764381,cover=227.863602
		5:[0<1.5] yes=9,no=10,missing=9,gain=29.7886124,cover=113.537331
			9:leaf=-0.148032948,cover=31.435524
			10:[24<1.5] yes=15,no=16,missing=15,gain=16.9262161,cover=82.1018066
				15:[10<1.5] yes=23,no=24,missing=23,gain=0.569286346,cover=70.8205414
					23:[15<0.5] yes=37,no=38,missing=37,gain=1.30924606,cover=42.5872688
						37:leaf=0.105278999,cover=10.7825632
						38:leaf=0.241583094,cover=31.8047047
					24:[8<0.5] yes=39,no=40,missing=39,gain=0.243993759,cover=28.2332745
						39:leaf=0.226613596,cover=15.407568
						40:leaf=0.343880475,cover=12.8257055
				16:leaf=-0.140039742,cover=11.2812643
		6:leaf=-0.151303738,cover=114.326271
booster[67]:
0:[0<0.5] yes=1,no=2,missing=1,gain=92.2493591,cover=501.574341
	1:[5<0.5] yes=3,no=4,missing=3,gain=38.9395676,cover=312.994293
		3:leaf=-0.149408504,cover=43.0148048
		4:[24<0.5] yes=5,no=6,missing=5,gain=0.773429871,cover=269.979492
			5:leaf=0.17845419,cover=102.634178
			6:[15<0.5] yes=7,no=8,missing=7,gain=0.504508972,cover=167.345322
				7:[24<1.5] yes=9,no=10,missing=9,gain=5.46723747,cover=109.816422
					9:[10<0.5] yes=13,no=14,missing=13,gain=9.18999386,cover=31.0538292
						13:leaf=0.178669214,cover=18.1600971
						14:leaf=-0.142179504,cover=12.8937311
					10:leaf=0.195314571,cover=78.7625961
				8:[24<1.5] yes=11,no=12,missing=11,gain=11.9316578,cover=57.5289001
					11:leaf=0.182952136,cover=45.25177
					12:leaf=-0.141551495,cover=12.277132
	2:leaf=-0.151877016,cover=188.580032
booster[68]:
0:[0<0.5] yes=1,no=2,missing=1,gain=48.5311966,cover=360.408264
	1:[15<1.5] yes=3,no=4,missing=3,gain=13.6549826,cover=171.828232
		3:[5<1.5] yes=5,no=6,missing=5,gain=21.260416,cover=149.880417
			5:[5<0.5] yes=7,no=8,missing=7,gain=15.9358168,cover=106.004196
				7:[24<0.5] yes=11,no=12,missing=11,gain=10.6019077,cover=75.4257584
					11:leaf=-0.142262682,cover=12.6041956
					12:[15<0.5] yes=15,no=16,missing=15,gain=9.77438736,cover=62.8215637
						15:leaf=0.0621174201,cover=41.1507835
						16:leaf=0.309494317,cover=21.6707802
				8:leaf=-0.152665406,cover=30.5784397
			6:[10<1.5] yes=9,no=10,missing=9,gain=15.190731,cover=43.8762245
				9:[24<0.5] yes=13,no=14,missing=13,gain=3.75794983,cover=37.3615913
					13:leaf=-0.0872537717,cover=1.37251413
					14:[15<0.5] yes=17,no=18,missing=17,gain=1.77223969,cover=35.9890785
						17:leaf=0.286728472,cover=22.5890121
						18:leaf=0.466454983,cover=13.4000664
				10:leaf=-0.132758066,cover=6.5146327
		4:leaf=-0.148417041,cover=21.9478073
	2:leaf=-0.151877016,cover=188.580032
booster[69]:
0:[0<0.5] yes=1,no=2,missing=1,gain=22.7646389,cover=321.645325
	1:[5<1.5] yes=3,no=4,missing=3,gain=5.94482946,cover=133.065277
		3:[10<1.5] yes=5,no=6,missing=5,gain=6.95435429,cover=114.84948
			5:[15<1.5] yes=7,no=8,missing=7,gain=18.6302605,cover=76.8930664
				7:leaf=-0.149300367,cover=42.0925827
				8:[24<1.5] yes=11,no=12,missing=11,gain=8.30089092,cover=34.8004837
					11:leaf=-0.133717373,cover=7.02661991
					12:leaf=0.215901271,cover=27.7738628
			6:[24<1.5] yes=9,no=10,missing=9,gain=6.60485172,cover=37.9564171
				9:[24<0.5] yes=13,no=14,missing=13,gain=2.8916254,cover=31.8633099
					13:leaf=-0.104471482,cover=2.15919328
					14:leaf=0.217172801,cover=29.7041168
				10:leaf=-0.131348372,cover=6.09310532
		4:leaf=-0.144696712,cover=18.2158051
	2:leaf=-0.151877016,cover=188.580032
booster[70]:
0:[0<0.5] yes=1,no=2,missing=1,gain=165.70517,cover=508.698853
	1:[24<0.5] yes=3,no=4,missing=3,gain=24.9727173,cover=320.118835
		3:leaf=-0.144044146,cover=17.1113205
		4:[10<1.5] yes=5,no=6,missing=5,gain=0.526947021,cover=303.007507
			5:[5<1.5] yes=7,no=8,missing=7,gain=2.16000366,cover=240.061035
				7:[24<1.5] yes=11,no=12,missing=11,gain=0.575805664,cover=195.818436
					11:[22<0.5] yes=19,no=20,missing=19,gain=0.447647095,cover=97.6631317
						19:leaf=0.275332361,cover=51.8417435
						20:leaf=0.21151717,cover=45.8213882
					12:[15<1.5] yes=21,no=22,missing=21,gain=7.72415161,cover=98.1552963
						21:leaf=0.222349778,cover=92.9101257
						22:leaf=-0.132098079,cover=5.24517012
				8:[15<1.5] yes=13,no=14,missing=13,gain=22.9219551,cover=44.2426109
					13:leaf=-0.154961348,cover=14.612401
					14:leaf=0.293916464,cover=29.6302109
			6:[13<0.5] yes=9,no=10,missing=9,gain=0.970367432,cover=62.9464684
				9:[5<1.5] yes=15,no=16,missing=15,gain=0.213274956,cover=23.7634335
					15:[24<1.5] yes=23,no=24,missing=23,gain=2.46250534,cover=13.9084225
						23:leaf=-0.107724957,cover=2.26052833
						24:leaf=0.197171196,cover=11.6478939
					16:[23<0.5] yes=25,no=26,missing=25,gain=0.143307209,cover=9.85501194
						25:leaf=0.284773439,cover=5.36020803
						26:leaf=0.137358412,cover=4.49480343
				10:[25<1.5] yes=17,no=18,missing=17,gain=0.402359009,cover=39.183033
					17:[21<0.5] yes=27,no=28,missing=27,gain=0.374565125,cover=25.5828667
						27:leaf=0.194212168,cover=17.5756969
						28:leaf=0.31641385,cover=8.00716972
					18:leaf=0.354852617,cover=13.6001663
	2:leaf=-0.151877016,cover=188.580032
booster[71]:
0:[0<1.5] yes=1,no=2,missing=1,gain=71.4530945,cover=471.0383
	1:[0<0.5] yes=3,no=4,missing=3,gain=76.4874725,cover=345.03244
		3:leaf=-0.150752828,cover=76.8630066
		4:[24<0.5] yes=5,no=6,missing=5,gain=1.44372559,cover=268.169464
			5:[8<0.5] yes=7,no=8,missing=7,gain=0.375938416,cover=141.296921
				7:[10<0.5] yes=11,no=12,missing=11,gain=0.0236091614,cover=64.1742859
					11:leaf=0.253168821,cover=39.9910049
					12:[5<0.5] yes=17,no=18,missing=17,gain=2.56558323,cover=24.1832771
						17:leaf=-0.0993053317,cover=1.91561007
						18:leaf=0.221603245,cover=22.2676659
				8:[21<0.5] yes=13,no=14,missing=13,gain=0.886575699,cover=77.1226349
					13:[10<1.5] yes=19,no=20,missing=19,gain=1.10563469,cover=39.1057777
						19:leaf=0.172889739,cover=30.8702927
						20:leaf=0.043069277,cover=8.23548603
					14:[5<1.5] yes=21,no=22,missing=21,gain=2.13029671,cover=38.0168571
						21:leaf=0.176935017,cover=30.3202152
						22:leaf=0.364854395,cover=7.69663954
			6:[24<1.5] yes=9,no=10,missing=9,gain=17.7555237,cover=126.872536
				9:leaf=-0.142759442,cover=14.6467438
				10:[22<0.5] yes=15,no=16,missing=15,gain=0.186687469,cover=112.225792
					15:[8<0.5] yes=23,no=24,missing=23,gain=1.23340225,cover=57.5990868
						23:leaf=0.108011834,cover=19.894556
						24:leaf=0.210292801,cover=37.7045326
					16:[10<1.5] yes=25,no=26,missing=25,gain=0.388660431,cover=54.6267014
						25:leaf=0.234528095,cover=46.864418
						26:leaf=0.128409058,cover=7.76228523
	2:leaf=-0.151456609,cover=126.005859
booster[72]:
0:[0<1.5] yes=1,no=2,missing=1,gain=114.930496,cover=465.565979
	1:leaf=-0.151633888,cover=139.437256
	2:[25<1.5] yes=3,no=4,missing=3,gain=49.1135101,cover=326.128754
		3:[24<1.5] yes=5,no=6,missing=5,gain=37.1328583,cover=288.949219
			5:[25<0.5] yes=7,no=8,missing=7,gain=2.29286194,cover=265.957733
				7:[24<0.5] yes=9,no=10,missing=9,gain=17.0689507,cover=108.971443
					9:[13<0.5] yes=13,no=14,missing=13,gain=0.737510681,cover=88.2533493
						13:leaf=0.299651325,cover=44.9041061
						14:leaf=0.222129971,cover=43.349247
					10:[5<0.5] yes=15,no=16,missing=15,gain=5.0731473,cover=20.7180939
						15:leaf=0.151906043,cover=7.33561897
						16:leaf=-0.142640442,cover=13.3824749
				8:[8<0.5] yes=11,no=12,missing=11,gain=1.78114319,cover=156.986282
					11:[13<0.5] yes=17,no=18,missing=17,gain=0.409713745,cover=85.2138062
						17:leaf=0.262151778,cover=41.4064484
						18:leaf=0.339081109,cover=43.8073578
					12:[5<0.5] yes=19,no=20,missing=19,gain=2.94404602,cover=71.7724762
						19:leaf=0.127947405,cover=22.0343151
						20:leaf=0.269257814,cover=49.738163
			6:leaf=-0.146046355,cover=22.9914799
		4:leaf=-0.148538217,cover=37.1795311
booster[73]:
0:[25<0.5] yes=1,no=2,missing=1,gain=33.6382942,cover=326.985748
	1:[0<1.5] yes=3,no=4,missing=3,gain=27.7893715,cover=154.81134
		3:leaf=-0.149549648,cover=47.1557541
		4:[24<0.5] yes=5,no=6,missing=5,gain=18.4938927,cover=107.655594
			5:leaf=-0.14505747,cover=18.2474384
			6:[24<1.5] yes=7,no=8,missing=7,gain=15.6197815,cover=89.4081573
				7:[23<0.5] yes=9,no=10,missing=9,gain=0.958213806,cover=78.1268921
					9:[21<0.5] yes=11,no=12,missing=11,gain=2.29235458,cover=35.5868301
						11:leaf=0.173467845,cover=17.0381222
						12:leaf=0.345395654,cover=18.5487099
					10:leaf=0.186922297,cover=42.5400581
				8:leaf=-0.140039742,cover=11.2812643
	2:leaf=-0.151769981,cover=172.174408
booster[74]:
0:[10<0.5] yes=1,no=2,missing=1,gain=74.7977982,cover=428.936249
	1:[24<1.5] yes=3,no=4,missing=3,gain=41.0478592,cover=290.069946
		3:[0<1.5] yes=5,no=6,missing=5,gain=39.7891617,cover=246.179581
			5:[5<0.5] yes=7,no=8,missing=7,gain=2.65158081,cover=214.637527
				7:[21<0.5] yes=9,no=10,missing=9,gain=0.880661011,cover=168.727997
					9:[0<0.5] yes=13,no=14,missing=13,gain=2.00662231,cover=82.3841782
						13:leaf=0.245417759,cover=41.8366776
						14:leaf=0.143479377,cover=40.5475006
					10:[15<1.5] yes=15,no=16,missing=15,gain=1.83655548,cover=86.343811
						15:leaf=0.288685232,cover=54.999115
						16:leaf=0.183110446,cover=31.3446999
				8:[0<0.5] yes=11,no=12,missing=11,gain=4.83466625,cover=45.9095268
					11:leaf=-0.124963574,cover=4.82833672
					12:[24<0.5] yes=17,no=18,missing=17,gain=2.11152744,cover=41.081192
						17:leaf=-0.09935534,cover=1.84568524
						18:leaf=0.187857106,cover=39.235508
			6:leaf=-0.147996292,cover=31.5420647
		4:leaf=-0.149380252,cover=43.8903503
	2:leaf=-0.151561841,cover=138.866302
booster[75]:
0:[24<0.5] yes=1,no=2,missing=1,gain=50.4069328,cover=450.447601
	1:leaf=-0.151112705,cover=91.8732605
	2:[24<1.5] yes=3,no=4,missing=3,gain=80.731308,cover=358.574341
		3:[25<1.5] yes=5,no=6,missing=5,gain=6.43264008,cover=270.253143
			5:[25<0.5] yes=7,no=8,missing=7,gain=7.04232025,cover=208.755234
				7:[0<0.5] yes=11,no=12,missing=11,gain=11.053194,cover=79.4079208
					11:[21<0.5] yes=17,no=18,missing=17,gain=0.816894531,cover=52.9866066
						17:leaf=0.157342449,cover=25.8657627
						18:leaf=0.249247208,cover=27.1208439
					12:[15<0.5] yes=19,no=20,missing=19,gain=5.53464508,cover=26.4213142
						19:leaf=0.12328998,cover=11.4516354
						20:leaf=-0.143733829,cover=14.9696789
				8:[0<1.5] yes=13,no=14,missing=13,gain=2.87697601,cover=129.347321
					13:[0<0.5] yes=21,no=22,missing=21,gain=7.61526108,cover=59.6454086
						21:leaf=0.225438341,cover=54.2263565
						22:leaf=-0.128774136,cover=5.41905022
					14:[5<0.5] yes=23,no=24,missing=23,gain=0.446731567,cover=69.7019043
						23:leaf=0.217956677,cover=18.22188
						24:leaf=0.3116346,cover=51.4800262
			6:[0<0.5] yes=9,no=10,missing=9,gain=16.5159206,cover=61.497921
				9:[23<0.5] yes=15,no=16,missing=15,gain=0.350442886,cover=43.3927345
					15:[8<0.5] yes=25,no=26,missing=25,gain=0.971639156,cover=22.8234692
						25:leaf=0.196670845,cover=14.0274172
						26:leaf=0.0612095408,cover=8.79605103
					16:[15<1.5] yes=27,no=28,missing=27,gain=0.216985703,cover=20.5692654
						27:leaf=0.237895474,cover=18.4936676
						28:leaf=0.0774752721,cover=2.07559752
				10:leaf=-0.144589245,cover=18.1051865
		4:leaf=-0.150937706,cover=88.3211823
booster[76]:
0:[10<0.5] yes=1,no=2,missing=1,gain=46.1865273,cover=478.892944
	1:leaf=-0.151539326,cover=126.661064
	2:[0<1.5] yes=3,no=4,missing=3,gain=53.6404991,cover=352.231873
		3:[0<0.5] yes=5,no=6,missing=5,gain=29.6441689,cover=269.382172
			5:leaf=-0.14802669,cover=31.1084156
			6:[24<0.5] yes=7,no=8,missing=7,gain=0.285087585,cover=238.273758
				7:[5<0.5] yes=9,no=10,missing=9,gain=9.7782135,cover=80.3222885
					9:leaf=0.17674014,cover=70.9685898
					10:leaf=-0.13842316,cover=9.35369682
				8:[15<0.5] yes=11,no=12,missing=11,gain=1.67941666,cover=157.951462
					11:leaf=0.188420489,cover=117.354034
					12:[24<1.5] yes=13,no=14,missing=13,gain=7.39669085,cover=40.5974274
						13:leaf=0.174247056,cover=32.6892281
						14:leaf=-0.135959432,cover=7.90819931
		4:leaf=-0.150870681,cover=82.8497009
booster[77]:
0:[0<1.5] yes=1,no=2,missing=1,gain=15.5117874,cover=323.806213
	1:[0<0.5] yes=3,no=4,missing=3,gain=25.3869991,cover=197.800354
		3:leaf=-0.150752828,cover=76.8630066
		4:[5<1.5] yes=5,no=6,missing=5,gain=10.0469608,cover=120.937355
			5:[10<1.5] yes=7,no=8,missing=7,gain=12.1395864,cover=104.814209
				7:[10<0.5] yes=9,no=10,missing=9,gain=14.3467903,cover=75.0981674
					9:[15<1.5] yes=13,no=14,missing=13,gain=9.04931545,cover=51.3414841
						13:leaf=0.182899609,cover=42.416275
						14:leaf=-0.13762033,cover=8.92521095
					10:leaf=-0.151703045,cover=23.7566833
				8:[15<1.5] yes=11,no=12,missing=11,gain=9.41303825,cover=29.7160454
					11:[24<0.5] yes=15,no=16,missing=15,gain=5.74884987,cover=25.3937588
						15:leaf=0.542137861,cover=7.50036097
						16:leaf=0.216412321,cover=17.8933983
					12:leaf=-0.124611713,cover=4.32228518
			6:leaf=-0.145764053,cover=16.1231403
	2:leaf=-0.151456609,cover=126.005859
booster[78]:
0:[0<1.5] yes=1,no=2,missing=1,gain=7.43691063,cover=309.322632
	1:[0<0.5] yes=3,no=4,missing=3,gain=13.3136253,cover=183.316772
		3:leaf=-0.150752828,cover=76.8630066
		4:[5<1.5] yes=5,no=6,missing=5,gain=6.01444197,cover=106.453766
			5:[15<1.5] yes=7,no=8,missing=7,gain=12.2667408,cover=73.0435715
				7:leaf=-0.148962677,cover=39.0199394
				8:[24<1.5] yes=11,no=12,missing=11,gain=8.41502571,cover=34.023632
					11:leaf=-0.137889981,cover=9.35597134
					12:[10<1.5] yes=15,no=16,missing=15,gain=3.90064049,cover=24.6676617
						15:leaf=0.226806,cover=21.7993469
						16:leaf=-0.11383421,cover=2.8683145
			6:[24<0.5] yes=9,no=10,missing=9,gain=5.74590111,cover=33.4101982
				9:[10<1.5] yes=13,no=14,missing=13,gain=5.71111965,cover=27.2861118
					13:leaf=0.23159413,cover=23.0575008
					14:leaf=-0.124049559,cover=4.22861195
				10:leaf=-0.13118808,cover=6.124084
	2:leaf=-0.151456609,cover=126.005859
booster[79]:
0:[15<0.5] yes=1,no=2,missing=1,gain=22.5150909,cover=323.468628
	1:[0<1.5] yes=3,no=4,missing=3,gain=16.1102676,cover=184.5625
		3:[24<1.5] yes=5,no=6,missing=5,gain=18.4255981,cover=140.875916
			5:[21<0.5] yes=7,no=8,missing=7,gain=2.01172638,cover=110.831696
				7:[5<0.5] yes=9,no=10,missing=9,gain=1.82078719,cover=55.0411606
					9:[24<0.5] yes=13,no=14,missing=13,gain=11.1904192,cover=25.2619743
						13:leaf=0.265982926,cover=16.7318344
						14:leaf=-0.140281722,cover=8.53013897
					10:[10<0.5] yes=15,no=16,missing=15,gain=7.82838631,cover=29.7791862
						15:leaf=0.156353459,cover=16.1637783
						16:leaf=-0.142481029,cover=13.615407
				8:[10<0.5] yes=11,no=12,missing=11,gain=0.595252037,cover=55.790535
					11:[5<0.5] yes=17,no=18,missing=17,gain=21.8801517,cover=24.9070168
						17:leaf=-0.140469417,cover=10.1258583
						18:leaf=0.413787812,cover=14.7811584
					12:[5<0.5] yes=19,no=20,missing=19,gain=23.6910172,cover=30.8835182
						19:leaf=0.366347253,cover=15.694849
						20:leaf=-0.144610941,cover=15.1886702
			6:leaf=-0.147728145,cover=30.0442142
		4:leaf=-0.149210736,cover=43.6865997
	2:leaf=-0.151613772,cover=138.906128
booster[80]:
0:[24<1.5] yes=1,no=2,missing=1,gain=129.990265,cover=487.826813
	1:leaf=-0.151858121,cover=177.197556
	2:[0<1.5] yes=3,no=4,missing=3,gain=44.7774811,cover=310.629242
		3:[21<0.5] yes=5,no=6,missing=5,gain=0.460769653,cover=275.865509
			5:[10<1.5] yes=7,no=8,missing=7,gain=0.659706116,cover=131.935455
				7:[8<0.5] yes=11,no=12,missing=11,gain=0.894439697,cover=99.8846436
					11:[20<0.5] yes=19,no=20,missing=19,gain=1.39861298,cover=51.92379
						19:leaf=0.271240503,cover=19.5991478
						20:leaf=0.156762183,cover=32.324646
					12:[13<0.5] yes=21,no=22,missing=21,gain=0.63621521,cover=47.9608536
						21:leaf=0.228395253,cover=27.8579826
						22:leaf=0.332870126,cover=20.1028709
				8:[15<1.5] yes=13,no=14,missing=13,gain=1.19525719,cover=32.050808
					13:[0<0.5] yes=23,no=24,missing=23,gain=3.11141157,cover=23.9567509
						23:leaf=0.173202112,cover=20.852026
						24:leaf=-0.119849302,cover=3.1047256
					14:[20<1.5] yes=25,no=26,missing=25,gain=0.566191673,cover=8.09405899
						25:leaf=0.347055733,cover=4.52912378
						26:leaf=0.128571913,cover=3.56493473
			6:[18<0.5] yes=9,no=10,missing=9,gain=0.113937378,cover=143.930069
				9:[20<0.5] yes=15,no=16,missing=15,gain=0.651966095,cover=69.0778503
					15:[5<1.5] yes=27,no=28,missing=27,gain=0.594478607,cover=27.385355
						27:leaf=0.18407236,cover=21.2259674
						28:leaf=0.0638225228,cover=6.15938711
					16:[13<0.5] yes=29,no=30,missing=29,gain=0.300205231,cover=41.6924973
						29:leaf=0.184288487,cover=18.7031784
						30:leaf=0.27144134,cover=22.9893188
				10:[10<1.5] yes=17,no=18,missing=17,gain=0.120607376,cover=74.852211
					17:[22<0.5] yes=31,no=32,missing=31,gain=0.0382537842,cover=61.1533165
						31:leaf=0.205699995,cover=28.0782986
						32:leaf=0.157616258,cover=33.075016
					18:[15<1.5] yes=33,no=34,missing=33,gain=0.601286411,cover=13.6988974
						33:leaf=0.0763350427,cover=10.4997349
						34:leaf=0.225622699,cover=3.19916224
		4:leaf=-0.148142457,cover=34.7637291
booster[81]:
0:[0<1.5] yes=1,no=2,missing=1,gain=54.0077095,cover=546.95813
	1:leaf=-0.151633888,cover=139.437256
	2:[15<0.5] yes=3,no=4,missing=3,gain=25.3217449,cover=407.520874
		3:leaf=-0.149221793,cover=43.7797928
		4:[5<0.5] yes=5,no=6,missing=5,gain=18.6050491,cover=363.741089
			5:[24<1.5] yes=7,no=8,missing=7,gain=7.12572098,cover=261.482666
				7:[24<0.5] yes=11,no=12,missing=11,gain=20.024704,cover=174.605637
					11:leaf=0.202736035,cover=82.5964203
					12:[25<1.5] yes=15,no=16,missing=15,gain=21.3753719,cover=92.0092163
						15:leaf=-0.104540221,cover=60.3252525
						16:leaf=0.195843428,cover=31.68396
				8:leaf=0.202510044,cover=86.877037
			6:[10<0.5] yes=9,no=10,missing=9,gain=18.3443184,cover=102.258408
				9:[24<0.5] yes=13,no=14,missing=13,gain=19.9248314,cover=53.4826698
					13:leaf=-0.148618832,cover=18.0936375
					14:[24<1.5] yes=17,no=18,missing=17,gain=27.7354107,cover=35.3890305
						17:leaf=0.409898192,cover=23.8716393
						18:leaf=-0.143283963,cover=11.5173912
				10:leaf=-0.149843737,cover=48.7757416
booster[82]:
0:[0<1.5] yes=1,no=2,missing=1,gain=57.8355179,cover=573.993164
	1:leaf=-0.151633888,cover=139.437256
	2:[5<1.5] yes=3,no=4,missing=3,gain=10.2073059,cover=434.555878
		3:[5<0.5] yes=5,no=6,missing=5,gain=9.95656967,cover=382.633972
			5:[25<0.5] yes=9,no=10,missing=9,gain=3.42352915,cover=49.6678848
				9:leaf=-0.144704565,cover=16.6474953
				10:[25<1.5] yes=15,no=16,missing=15,gain=6.3094306,cover=33.0203896
					15:[10<0.5] yes=23,no=24,missing=23,gain=9.2907877,cover=20.3646278
						23:leaf=-0.136072397,cover=7.43427038
						24:leaf=0.266140372,cover=12.930357
					16:leaf=-0.141342089,cover=12.6557608
			6:[25<1.5] yes=11,no=12,missing=11,gain=9.35802078,cover=332.966095
				11:[25<0.5] yes=17,no=18,missing=17,gain=13.8819675,cover=229.838516
					17:[15<1.5] yes=25,no=26,missing=25,gain=2.50227737,cover=98.2205505
						25:leaf=0.110131525,cover=55.1565552
						26:leaf=0.210606754,cover=43.0639915
					18:[24<1.5] yes=27,no=28,missing=27,gain=19.1035576,cover=131.617966
						27:leaf=-0.0600053035,cover=97.9469376
						28:leaf=0.198775947,cover=33.6710243
				12:[15<0.5] yes=19,no=20,missing=19,gain=1.07637405,cover=103.127579
					19:leaf=0.215806991,cover=48.2082977
					20:[15<1.5] yes=29,no=30,missing=29,gain=10.7119551,cover=54.919281
						29:leaf=-0.138258129,cover=9.21349525
						30:leaf=0.204552025,cover=45.7057838
		4:[25<0.5] yes=7,no=8,missing=7,gain=2.72724867,cover=51.9219131
			7:leaf=-0.145116255,cover=18.030283
			8:[25<1.5] yes=13,no=14,missing=13,gain=4.88053179,cover=33.8916321
				13:[10<1.5] yes=21,no=22,missing=21,gain=7.69994497,cover=20.9393291
					21:[10<0.5] yes=31,no=32,missing=31,gain=17.5629826,cover=13.01052
						31:leaf=-0.13204594,cover=6.30033636
						32:leaf=0.526498258,cover=6.71018362
					22:leaf=-0.137323022,cover=7.92880821
				14:leaf=-0.14174284,cover=12.9523029
booster[83]:
0:[0<1.5] yes=1,no=2,missing=1,gain=54.8306274,cover=592.137878
	1:leaf=-0.151636139,cover=139.530197
	2:[15<1.5] yes=3,no=4,missing=3,gain=23.7869377,cover=452.607697
		3:[5<1.5] yes=5,no=6,missing=5,gain=21.2193146,cover=410.37912
			5:[10<1.5] yes=7,no=8,missing=7,gain=15.397666,cover=89.5574646
				7:leaf=-0.149963111,cover=51.2993851
				8:[24<0.5] yes=11,no=12,missing=11,gain=15.6038876,cover=38.2580795
					11:leaf=-0.145846173,cover=14.0771856
					12:[24<1.5] yes=15,no=16,missing=15,gain=27.2380753,cover=24.1808929
						15:leaf=0.489206195,cover=14.4915228
						16:leaf=-0.140424043,cover=9.68937016
			6:[25<1.5] yes=9,no=10,missing=9,gain=15.1080322,cover=320.821655
				9:[25<0.5] yes=13,no=14,missing=13,gain=37.9078484,cover=222.720154
					13:leaf=0.219069794,cover=95.3897552
					14:[10<1.5] yes=17,no=18,missing=17,gain=28.4398785,cover=127.330406
						17:leaf=-0.112592973,cover=95.1113739
						18:leaf=0.209462628,cover=32.2190323
				10:leaf=0.218576178,cover=98.1014862
		4:leaf=-0.149196893,cover=42.2285805
booster[84]:
0:[24<1.5] yes=1,no=2,missing=1,gain=27.4939632,cover=355.45224
	1:leaf=-0.151858121,cover=177.197556
	2:[0<1.5] yes=3,no=4,missing=3,gain=23.6316414,cover=178.254684
		3:leaf=-0.150013968,cover=53.6731186
		4:[5<0.5] yes=5,no=6,missing=5,gain=18.3871307,cover=124.581573
			5:[15<0.5] yes=7,no=8,missing=7,gain=2.93932533,cover=100.745461
				7:[13<0.5] yes=9,no=10,missing=9,gain=0.275741577,cover=97.5711288
					9:[18<0.5] yes=11,no=12,missing=11,gain=0.0796842575,cover=53.3364182
						11:leaf=0.102297872,cover=20.982542
						12:leaf=0.144696832,cover=32.353878
					10:[25<1.5] yes=13,no=14,missing=13,gain=0.162506104,cover=44.2347069
						13:leaf=0.145844474,cover=27.4184303
						14:leaf=0.2094374,cover=16.8162766
				8:leaf=-0.114891224,cover=3.17433167
			6:leaf=-0.146325126,cover=23.836113
booster[85]:
0:[24<1.5] yes=1,no=2,missing=1,gain=28.5985584,cover=355.246368
	1:leaf=-0.151858121,cover=177.197556
	2:[0<1.5] yes=3,no=4,missing=3,gain=24.6082573,cover=178.048798
		3:leaf=-0.150013968,cover=53.6731186
		4:[5<1.5] yes=5,no=6,missing=5,gain=8.43871117,cover=124.375687
			5:[5<0.5] yes=7,no=8,missing=7,gain=9.69144058,cover=112.474953
				7:leaf=-0.139757439,cover=11.1311893
				8:[15<0.5] yes=9,no=10,missing=9,gain=1.64692497,cover=101.343765
					9:leaf=-0.0975520983,cover=1.80923367
					10:[15<1.5] yes=11,no=12,missing=11,gain=1.63717842,cover=99.5345306
						11:leaf=0.156692475,cover=97.7980652
						12:leaf=-0.096007891,cover=1.7364651
			6:leaf=-0.140687928,cover=11.9007282
booster[86]:
0:[15<1.5] yes=1,no=2,missing=1,gain=34.6709366,cover=349.525574
	1:leaf=-0.151934132,cover=197.899994
	2:[24<1.5] yes=3,no=4,missing=3,gain=26.6730976,cover=151.625565
		3:leaf=-0.149451867,cover=46.2910767
		4:[0<1.5] yes=5,no=6,missing=5,gain=8.98848915,cover=105.334488
			5:leaf=-0.138953194,cover=9.9972229
			6:[5<1.5] yes=7,no=8,missing=7,gain=2.9446106,cover=95.337265
				7:leaf=-0.113529839,cover=3.0153563
				8:[20<0.5] yes=9,no=10,missing=9,gain=0.297891617,cover=92.3219147
					9:[10<1.5] yes=11,no=12,missing=11,gain=0.0332803726,cover=27.6509686
						11:leaf=0.211742893,cover=19.245676
						12:leaf=0.133641452,cover=8.40529156
					10:[18<0.5] yes=13,no=14,missing=13,gain=0.364537239,cover=64.6709442
						13:leaf=0.114318371,cover=35.0001717
						14:leaf=0.170776665,cover=29.6707726
booster[87]:
0:[25<1.5] yes=1,no=2,missing=1,gain=20.4778938,cover=326.356842
	1:leaf=-0.151881278,cover=182.301315
	2:[0<1.5] yes=3,no=4,missing=3,gain=17.1458988,cover=144.055527
		3:leaf=-0.149504483,cover=46.1851654
		4:[5<0.5] yes=5,no=6,missing=5,gain=17.9312115,cover=97.8703613
			5:[24<1.5] yes=7,no=8,missing=7,gain=3.7994175,cover=73.1601944
				7:[15<0.5] yes=9,no=10,missing=9,gain=2.15535164,cover=69.2863922
					9:[8<0.5] yes=11,no=12,missing=11,gain=0.0736141205,cover=67.1986465
						11:leaf=0.144245118,cover=31.8325615
						12:leaf=0.1894532,cover=35.3660851
					10:leaf=-0.102132045,cover=2.08774877
				8:leaf=-0.121127509,cover=3.87380147
			6:leaf=-0.146630928,cover=24.7101631
booster[88]:
0:[25<1.5] yes=1,no=2,missing=1,gain=20.5467548,cover=308.404816
	1:leaf=-0.151881278,cover=182.301315
	2:[0<1.5] yes=3,no=4,missing=3,gain=19.8820686,cover=126.103508
		3:leaf=-0.149499848,cover=46.150135
		4:[15<1.5] yes=5,no=6,missing=5,gain=12.2844315,cover=79.9533691
			5:[15<0.5] yes=7,no=8,missing=7,gain=16.8296661,cover=65.0854568
				7:leaf=-0.141824439,cover=13.2792091
				8:[24<1.5] yes=9,no=10,missing=9,gain=6.35083008,cover=51.8062477
					9:[5<0.5] yes=11,no=12,missing=11,gain=3.634758,cover=48.0236969
						11:leaf=-0.100631006,cover=1.96238351
						12:leaf=0.274428397,cover=46.0613136
					10:leaf=-0.12063247,cover=3.78254771
			6:leaf=-0.14360106,cover=14.8679161
booster[89]:
0:[15<1.5] yes=1,no=2,missing=1,gain=17.7006607,cover=312.466827
	1:leaf=-0.151934132,cover=197.899994
	2:[25<1.5] yes=3,no=4,missing=3,gain=19.908268,cover=114.566826
		3:leaf=-0.14959234,cover=47.9319611
		4:[5<1.5] yes=5,no=6,missing=5,gain=7.75438023,cover=66.6348648
			5:leaf=-0.137772813,cover=9.58086014
			6:[24<1.5] yes=7,no=8,missing=7,gain=5.29755783,cover=57.0540085
				7:[8<0.5] yes=9,no=10,missing=9,gain=0.316232681,cover=51.9117317
					9:[10<1.5] yes=11,no=12,missing=11,gain=0.146991253,cover=25.3063889
						11:leaf=0.10673859,cover=17.1358204
						12:leaf=0.178030014,cover=8.17056847
					10:leaf=0.201045573,cover=26.6053448
				8:leaf=-0.128188297,cover=5.14227438
booster[90]:
0:[5<0.5] yes=1,no=2,missing=1,gain=63.3273468,cover=595.350769
	1:[10<0.5] yes=3,no=4,missing=3,gain=7.62471008,cover=417.610565
		3:[0<1.5] yes=7,no=8,missing=7,gain=2.27063751,cover=270.909882
			7:[0<0.5] yes=13,no=14,missing=13,gain=0.783851624,cover=227.712708
				13:[24<0.5] yes=21,no=22,missing=21,gain=69.7602539,cover=117.797379
					21:leaf=-0.15824604,cover=34.7663193
					22:[24<1.5] yes=33,no=34,missing=33,gain=16.9953842,cover=83.0310593
						33:leaf=0.462630868,cover=46.6781006
						34:leaf=0.182275996,cover=36.3529587
				14:[24<0.5] yes=23,no=24,missing=23,gain=63.812149,cover=109.915337
					23:leaf=0.478380501,cover=52.0430031
					24:[24<1.5] yes=35,no=36,missing=35,gain=22.4649124,cover=57.8723335
						35:leaf=-0.158023953,cover=29.5444603
						36:leaf=0.20962505,cover=28.3278732
			8:[25<1.5] yes=15,no=16,missing=15,gain=4.0677681,cover=43.1971664
				15:[24<1.5] yes=25,no=26,missing=25,gain=2.99530029,cover=39.0306168
					25:[15<0.5] yes=37,no=38,missing=37,gain=1.66229725,cover=36.4028664
						37:leaf=0.201919228,cover=35.0476456
						38:leaf=-0.08692348,cover=1.35522282
					26:leaf=-0.110397168,cover=2.62774992
				16:leaf=-0.123105161,cover=4.16654825
		4:[15<0.5] yes=9,no=10,missing=9,gain=15.2962494,cover=146.700684
			9:[25<1.5] yes=17,no=18,missing=17,gain=5.80619812,cover=129.848145
				17:[24<0.5] yes=27,no=28,missing=27,gain=1.21763992,cover=96.043808
					27:[0<1.5] yes=39,no=40,missing=39,gain=6.06334114,cover=45.3971481
						39:leaf=-0.119165085,cover=3.55118752
						40:leaf=0.261950761,cover=41.8459625
					28:[0<0.5] yes=41,no=42,missing=41,gain=11.6183805,cover=50.646656
						41:leaf=0.220506862,cover=41.3013649
						42:leaf=-0.138039693,cover=9.34528923
				18:[0<0.5] yes=29,no=30,missing=29,gain=8.51957798,cover=33.8043404
					29:[24<1.5] yes=43,no=44,missing=43,gain=2.0803051,cover=21.4566097
						43:leaf=-0.100548714,cover=1.92900395
						44:leaf=0.186274648,cover=19.527607
